digraph Tree {
node [shape=box, fontname="helvetica"] ;
edge [fontname="helvetica"] ;
0 [label="flee <= 1.5\nentropy = 0.806\nsamples = 2930\nvalue = [2207, 723]\nclass = No"] ;
1 [label="race <= 2.5\nentropy = 0.503\nsamples = 802\nvalue = [713, 89]\nclass = No"] ;
0 -> 1 [labeldistance=2.5, labelangle=45, headlabel="True"] ;
2 [label="armed <= 40.0\nentropy = 0.418\nsamples = 426\nvalue = [390, 36]\nclass = No"] ;
1 -> 2 ;
3 [label="armed <= 0.5\nentropy = 0.305\nsamples = 275\nvalue = [260, 15]\nclass = No"] ;
2 -> 3 ;
4 [label="entropy = 0.0\nsamples = 1\nvalue = [0, 1]\nclass = Yes"] ;
3 -> 4 ;
5 [label="flee <= 0.5\nentropy = 0.291\nsamples = 274\nvalue = [260, 14]\nclass = No"] ;
3 -> 5 ;
6 [label="threat_level <= 1.5\nentropy = 0.426\nsamples = 115\nvalue = [105, 10]\nclass = No"] ;
5 -> 6 ;
7 [label="entropy = 0.401\nsamples = 113\nvalue = [104, 9]\nclass = No"] ;
6 -> 7 ;
8 [label="entropy = 1.0\nsamples = 2\nvalue = [1, 1]\nclass = No"] ;
6 -> 8 ;
9 [label="gender <= 0.5\nentropy = 0.169\nsamples = 159\nvalue = [155, 4]\nclass = No"] ;
5 -> 9 ;
10 [label="entropy = 0.0\nsamples = 1\nvalue = [0, 1]\nclass = Yes"] ;
9 -> 10 ;
11 [label="entropy = 0.136\nsamples = 158\nvalue = [155, 3]\nclass = No"] ;
9 -> 11 ;
12 [label="armed <= 74.5\nentropy = 0.582\nsamples = 151\nvalue = [130, 21]\nclass = No"] ;
2 -> 12 ;
13 [label="age <= 20.5\nentropy = 0.901\nsamples = 41\nvalue = [28.0, 13.0]\nclass = No"] ;
12 -> 13 ;
14 [label="entropy = 0.0\nsamples = 5\nvalue = [5, 0]\nclass = No"] ;
13 -> 14 ;
15 [label="armed <= 56.0\nentropy = 0.944\nsamples = 36\nvalue = [23, 13]\nclass = No"] ;
13 -> 15 ;
16 [label="entropy = 0.84\nsamples = 26\nvalue = [19, 7]\nclass = No"] ;
15 -> 16 ;
17 [label="entropy = 0.971\nsamples = 10\nvalue = [4, 6]\nclass = Yes"] ;
15 -> 17 ;
18 [label="flee <= 0.5\nentropy = 0.376\nsamples = 110\nvalue = [102, 8]\nclass = No"] ;
12 -> 18 ;
19 [label="threat_level <= 0.5\nentropy = 0.208\nsamples = 61\nvalue = [59, 2]\nclass = No"] ;
18 -> 19 ;
20 [label="entropy = 0.454\nsamples = 21\nvalue = [19, 2]\nclass = No"] ;
19 -> 20 ;
21 [label="entropy = 0.0\nsamples = 40\nvalue = [40, 0]\nclass = No"] ;
19 -> 21 ;
22 [label="age <= 33.5\nentropy = 0.536\nsamples = 49\nvalue = [43, 6]\nclass = No"] ;
18 -> 22 ;
23 [label="entropy = 0.33\nsamples = 33\nvalue = [31, 2]\nclass = No"] ;
22 -> 23 ;
24 [label="entropy = 0.811\nsamples = 16\nvalue = [12, 4]\nclass = No"] ;
22 -> 24 ;
25 [label="armed <= 75.5\nentropy = 0.587\nsamples = 376\nvalue = [323, 53]\nclass = No"] ;
1 -> 25 ;
26 [label="age <= 17.5\nentropy = 0.614\nsamples = 343\nvalue = [291, 52]\nclass = No"] ;
25 -> 26 ;
27 [label="threat_level <= 0.5\nentropy = 0.971\nsamples = 5\nvalue = [2, 3]\nclass = Yes"] ;
26 -> 27 ;
28 [label="entropy = 0.0\nsamples = 3\nvalue = [0, 3]\nclass = Yes"] ;
27 -> 28 ;
29 [label="entropy = 0.0\nsamples = 2\nvalue = [2, 0]\nclass = No"] ;
27 -> 29 ;
30 [label="armed <= 13.0\nentropy = 0.597\nsamples = 338\nvalue = [289, 49]\nclass = No"] ;
26 -> 30 ;
31 [label="entropy = 0.0\nsamples = 1\nvalue = [0, 1]\nclass = Yes"] ;
30 -> 31 ;
32 [label="age <= 57.5\nentropy = 0.591\nsamples = 337\nvalue = [289, 48]\nclass = No"] ;
30 -> 32 ;
33 [label="entropy = 0.605\nsamples = 324\nvalue = [276, 48]\nclass = No"] ;
32 -> 33 ;
34 [label="entropy = 0.0\nsamples = 13\nvalue = [13, 0]\nclass = No"] ;
32 -> 34 ;
35 [label="gender <= 0.5\nentropy = 0.196\nsamples = 33\nvalue = [32, 1]\nclass = No"] ;
25 -> 35 ;
36 [label="entropy = 1.0\nsamples = 2\nvalue = [1, 1]\nclass = No"] ;
35 -> 36 ;
37 [label="entropy = 0.0\nsamples = 31\nvalue = [31, 0]\nclass = No"] ;
35 -> 37 ;
38 [label="race <= 3.5\nentropy = 0.879\nsamples = 2128\nvalue = [1494, 634]\nclass = No"] ;
0 -> 38 [labeldistance=2.5, labelangle=-45, headlabel="False"] ;
39 [label="armed <= 40.5\nentropy = 0.763\nsamples = 948\nvalue = [738, 210]\nclass = No"] ;
38 -> 39 ;
40 [label="armed <= 25.0\nentropy = 0.649\nsamples = 542\nvalue = [452, 90]\nclass = No"] ;
39 -> 40 ;
41 [label="manner_of_death <= 0.5\nentropy = 0.999\nsamples = 25\nvalue = [13, 12]\nclass = No"] ;
40 -> 41 ;
42 [label="age <= 27.5\nentropy = 0.985\nsamples = 21\nvalue = [9, 12]\nclass = Yes"] ;
41 -> 42 ;
43 [label="entropy = 0.0\nsamples = 5\nvalue = [0, 5]\nclass = Yes"] ;
42 -> 43 ;
44 [label="entropy = 0.989\nsamples = 16\nvalue = [9, 7]\nclass = No"] ;
42 -> 44 ;
45 [label="entropy = 0.0\nsamples = 4\nvalue = [4, 0]\nclass = No"] ;
41 -> 45 ;
46 [label="age <= 63.5\nentropy = 0.612\nsamples = 517\nvalue = [439, 78]\nclass = No"] ;
40 -> 46 ;
47 [label="age <= 53.5\nentropy = 0.599\nsamples = 508\nvalue = [434, 74]\nclass = No"] ;
46 -> 47 ;
48 [label="entropy = 0.614\nsamples = 488\nvalue = [414, 74]\nclass = No"] ;
47 -> 48 ;
49 [label="entropy = 0.0\nsamples = 20\nvalue = [20, 0]\nclass = No"] ;
47 -> 49 ;
50 [label="race <= 1.5\nentropy = 0.991\nsamples = 9\nvalue = [5, 4]\nclass = No"] ;
46 -> 50 ;
51 [label="entropy = 0.863\nsamples = 7\nvalue = [5, 2]\nclass = No"] ;
50 -> 51 ;
52 [label="entropy = 0.0\nsamples = 2\nvalue = [0, 2]\nclass = Yes"] ;
50 -> 52 ;
53 [label="flee <= 2.5\nentropy = 0.876\nsamples = 406\nvalue = [286.0, 120.0]\nclass = No"] ;
39 -> 53 ;
54 [label="threat_level <= 0.5\nentropy = 0.89\nsamples = 391\nvalue = [271, 120]\nclass = No"] ;
53 -> 54 ;
55 [label="body_camera <= 0.5\nentropy = 0.78\nsamples = 160\nvalue = [123, 37]\nclass = No"] ;
54 -> 55 ;
56 [label="entropy = 0.701\nsamples = 137\nvalue = [111, 26]\nclass = No"] ;
55 -> 56 ;
57 [label="entropy = 0.999\nsamples = 23\nvalue = [12, 11]\nclass = No"] ;
55 -> 57 ;
58 [label="armed <= 73.5\nentropy = 0.942\nsamples = 231\nvalue = [148, 83]\nclass = No"] ;
54 -> 58 ;
59 [label="entropy = 0.987\nsamples = 155\nvalue = [88, 67]\nclass = No"] ;
58 -> 59 ;
60 [label="entropy = 0.742\nsamples = 76\nvalue = [60, 16]\nclass = No"] ;
58 -> 60 ;
61 [label="entropy = 0.0\nsamples = 15\nvalue = [15, 0]\nclass = No"] ;
53 -> 61 ;
62 [label="armed <= 32.5\nentropy = 0.942\nsamples = 1180\nvalue = [756, 424]\nclass = No"] ;
38 -> 62 ;
63 [label="flee <= 2.5\nentropy = 0.915\nsamples = 760\nvalue = [509.0, 251.0]\nclass = No"] ;
62 -> 63 ;
64 [label="age <= 50.5\nentropy = 0.924\nsamples = 726\nvalue = [480, 246]\nclass = No"] ;
63 -> 64 ;
65 [label="threat_level <= 0.5\nentropy = 0.897\nsamples = 492\nvalue = [338, 154]\nclass = No"] ;
64 -> 65 ;
66 [label="entropy = 0.864\nsamples = 388\nvalue = [277, 111]\nclass = No"] ;
65 -> 66 ;
67 [label="entropy = 0.978\nsamples = 104\nvalue = [61, 43]\nclass = No"] ;
65 -> 67 ;
68 [label="age <= 64.5\nentropy = 0.967\nsamples = 234\nvalue = [142, 92]\nclass = No"] ;
64 -> 68 ;
69 [label="entropy = 0.985\nsamples = 182\nvalue = [104, 78]\nclass = No"] ;
68 -> 69 ;
70 [label="entropy = 0.84\nsamples = 52\nvalue = [38, 14]\nclass = No"] ;
68 -> 70 ;
71 [label="age <= 32.5\nentropy = 0.602\nsamples = 34\nvalue = [29, 5]\nclass = No"] ;
63 -> 71 ;
72 [label="gender <= 0.5\nentropy = 0.89\nsamples = 13\nvalue = [9, 4]\nclass = No"] ;
71 -> 72 ;
73 [label="entropy = 0.0\nsamples = 2\nvalue = [2, 0]\nclass = No"] ;
72 -> 73 ;
74 [label="entropy = 0.946\nsamples = 11\nvalue = [7, 4]\nclass = No"] ;
72 -> 74 ;
75 [label="age <= 45.5\nentropy = 0.276\nsamples = 21\nvalue = [20, 1]\nclass = No"] ;
71 -> 75 ;
76 [label="entropy = 0.0\nsamples = 16\nvalue = [16, 0]\nclass = No"] ;
75 -> 76 ;
77 [label="entropy = 0.722\nsamples = 5\nvalue = [4, 1]\nclass = No"] ;
75 -> 77 ;
78 [label="armed <= 74.5\nentropy = 0.977\nsamples = 420\nvalue = [247, 173]\nclass = No"] ;
62 -> 78 ;
79 [label="age <= 67.5\nentropy = 0.993\nsamples = 320\nvalue = [176, 144]\nclass = No"] ;
78 -> 79 ;
80 [label="gender <= 0.5\nentropy = 0.991\nsamples = 317\nvalue = [176, 141]\nclass = No"] ;
79 -> 80 ;
81 [label="entropy = 0.946\nsamples = 22\nvalue = [8, 14]\nclass = Yes"] ;
80 -> 81 ;
82 [label="entropy = 0.986\nsamples = 295\nvalue = [168, 127]\nclass = No"] ;
80 -> 82 ;
83 [label="entropy = 0.0\nsamples = 3\nvalue = [0, 3]\nclass = Yes"] ;
79 -> 83 ;
84 [label="body_camera <= 0.5\nentropy = 0.869\nsamples = 100\nvalue = [71.0, 29.0]\nclass = No"] ;
78 -> 84 ;
85 [label="gender <= 0.5\nentropy = 0.816\nsamples = 91\nvalue = [68, 23]\nclass = No"] ;
84 -> 85 ;
86 [label="entropy = 0.0\nsamples = 6\nvalue = [6, 0]\nclass = No"] ;
85 -> 86 ;
87 [label="entropy = 0.842\nsamples = 85\nvalue = [62, 23]\nclass = No"] ;
85 -> 87 ;
88 [label="age <= 20.5\nentropy = 0.918\nsamples = 9\nvalue = [3, 6]\nclass = Yes"] ;
84 -> 88 ;
89 [label="entropy = 0.0\nsamples = 1\nvalue = [1, 0]\nclass = No"] ;
88 -> 89 ;
90 [label="entropy = 0.811\nsamples = 8\nvalue = [2, 6]\nclass = Yes"] ;
88 -> 90 ;
}