digraph Tree {
node [shape=box, fontname="helvetica"] ;
edge [fontname="helvetica"] ;
0 [label="flee <= 1.5\nentropy = 0.806\nsamples = 2930\nvalue = [2207, 723]\nclass = No"] ;
1 [label="race <= 2.5\nentropy = 0.503\nsamples = 802\nvalue = [713, 89]\nclass = No"] ;
0 -> 1 [labeldistance=2.5, labelangle=45, headlabel="True"] ;
2 [label="armed <= 40.0\nentropy = 0.418\nsamples = 426\nvalue = [390, 36]\nclass = No"] ;
1 -> 2 ;
3 [label="armed <= 0.5\nentropy = 0.305\nsamples = 275\nvalue = [260, 15]\nclass = No"] ;
2 -> 3 ;
4 [label="entropy = 0.0\nsamples = 1\nvalue = [0, 1]\nclass = Yes"] ;
3 -> 4 ;
5 [label="flee <= 0.5\nentropy = 0.291\nsamples = 274\nvalue = [260, 14]\nclass = No"] ;
3 -> 5 ;
6 [label="threat_level <= 1.5\nentropy = 0.426\nsamples = 115\nvalue = [105, 10]\nclass = No"] ;
5 -> 6 ;
7 [label="body_camera <= 0.5\nentropy = 0.401\nsamples = 113\nvalue = [104, 9]\nclass = No"] ;
6 -> 7 ;
8 [label="age <= 19.5\nentropy = 0.356\nsamples = 104\nvalue = [97, 7]\nclass = No"] ;
7 -> 8 ;
9 [label="age <= 17.5\nentropy = 0.65\nsamples = 12\nvalue = [10, 2]\nclass = No"] ;
8 -> 9 ;
10 [label="entropy = 0.0\nsamples = 3\nvalue = [3, 0]\nclass = No"] ;
9 -> 10 ;
11 [label="threat_level <= 0.5\nentropy = 0.764\nsamples = 9\nvalue = [7, 2]\nclass = No"] ;
9 -> 11 ;
12 [label="age <= 18.5\nentropy = 0.592\nsamples = 7\nvalue = [6, 1]\nclass = No"] ;
11 -> 12 ;
13 [label="armed <= 30.5\nentropy = 0.918\nsamples = 3\nvalue = [2, 1]\nclass = No"] ;
12 -> 13 ;
14 [label="entropy = 1.0\nsamples = 2\nvalue = [1, 1]\nclass = No"] ;
13 -> 14 ;
15 [label="entropy = 0.0\nsamples = 1\nvalue = [1, 0]\nclass = No"] ;
13 -> 15 ;
16 [label="entropy = 0.0\nsamples = 4\nvalue = [4, 0]\nclass = No"] ;
12 -> 16 ;
17 [label="entropy = 1.0\nsamples = 2\nvalue = [1, 1]\nclass = No"] ;
11 -> 17 ;
18 [label="age <= 27.5\nentropy = 0.305\nsamples = 92\nvalue = [87, 5]\nclass = No"] ;
8 -> 18 ;
19 [label="entropy = 0.0\nsamples = 24\nvalue = [24, 0]\nclass = No"] ;
18 -> 19 ;
20 [label="race <= 1.5\nentropy = 0.379\nsamples = 68\nvalue = [63, 5]\nclass = No"] ;
18 -> 20 ;
21 [label="age <= 39.5\nentropy = 0.503\nsamples = 36\nvalue = [32, 4]\nclass = No"] ;
20 -> 21 ;
22 [label="age <= 38.5\nentropy = 0.592\nsamples = 28\nvalue = [24, 4]\nclass = No"] ;
21 -> 22 ;
23 [label="age <= 29.5\nentropy = 0.414\nsamples = 24\nvalue = [22, 2]\nclass = No"] ;
22 -> 23 ;
24 [label="age <= 28.5\nentropy = 0.811\nsamples = 8\nvalue = [6, 2]\nclass = No"] ;
23 -> 24 ;
25 [label="entropy = 0.65\nsamples = 6\nvalue = [5, 1]\nclass = No"] ;
24 -> 25 ;
26 [label="entropy = 1.0\nsamples = 2\nvalue = [1, 1]\nclass = No"] ;
24 -> 26 ;
27 [label="entropy = 0.0\nsamples = 16\nvalue = [16, 0]\nclass = No"] ;
23 -> 27 ;
28 [label="entropy = 1.0\nsamples = 4\nvalue = [2, 2]\nclass = No"] ;
22 -> 28 ;
29 [label="entropy = 0.0\nsamples = 8\nvalue = [8, 0]\nclass = No"] ;
21 -> 29 ;
30 [label="age <= 44.5\nentropy = 0.201\nsamples = 32\nvalue = [31, 1]\nclass = No"] ;
20 -> 30 ;
31 [label="entropy = 0.0\nsamples = 25\nvalue = [25, 0]\nclass = No"] ;
30 -> 31 ;
32 [label="age <= 45.5\nentropy = 0.592\nsamples = 7\nvalue = [6, 1]\nclass = No"] ;
30 -> 32 ;
33 [label="threat_level <= 0.5\nentropy = 1.0\nsamples = 2\nvalue = [1, 1]\nclass = No"] ;
32 -> 33 ;
34 [label="entropy = 0.0\nsamples = 1\nvalue = [1, 0]\nclass = No"] ;
33 -> 34 ;
35 [label="entropy = 0.0\nsamples = 1\nvalue = [0, 1]\nclass = Yes"] ;
33 -> 35 ;
36 [label="entropy = 0.0\nsamples = 5\nvalue = [5, 0]\nclass = No"] ;
32 -> 36 ;
37 [label="race <= 1.5\nentropy = 0.764\nsamples = 9\nvalue = [7, 2]\nclass = No"] ;
7 -> 37 ;
38 [label="entropy = 0.0\nsamples = 3\nvalue = [3, 0]\nclass = No"] ;
37 -> 38 ;
39 [label="age <= 28.5\nentropy = 0.918\nsamples = 6\nvalue = [4, 2]\nclass = No"] ;
37 -> 39 ;
40 [label="age <= 18.5\nentropy = 1.0\nsamples = 4\nvalue = [2, 2]\nclass = No"] ;
39 -> 40 ;
41 [label="entropy = 0.0\nsamples = 1\nvalue = [1, 0]\nclass = No"] ;
40 -> 41 ;
42 [label="age <= 22.0\nentropy = 0.918\nsamples = 3\nvalue = [1, 2]\nclass = Yes"] ;
40 -> 42 ;
43 [label="entropy = 0.0\nsamples = 1\nvalue = [0, 1]\nclass = Yes"] ;
42 -> 43 ;
44 [label="age <= 25.0\nentropy = 1.0\nsamples = 2\nvalue = [1, 1]\nclass = No"] ;
42 -> 44 ;
45 [label="entropy = 0.0\nsamples = 1\nvalue = [1, 0]\nclass = No"] ;
44 -> 45 ;
46 [label="entropy = 0.0\nsamples = 1\nvalue = [0, 1]\nclass = Yes"] ;
44 -> 46 ;
47 [label="entropy = 0.0\nsamples = 2\nvalue = [2, 0]\nclass = No"] ;
39 -> 47 ;
48 [label="age <= 35.0\nentropy = 1.0\nsamples = 2\nvalue = [1, 1]\nclass = No"] ;
6 -> 48 ;
49 [label="entropy = 0.0\nsamples = 1\nvalue = [1, 0]\nclass = No"] ;
48 -> 49 ;
50 [label="entropy = 0.0\nsamples = 1\nvalue = [0, 1]\nclass = Yes"] ;
48 -> 50 ;
51 [label="gender <= 0.5\nentropy = 0.169\nsamples = 159\nvalue = [155, 4]\nclass = No"] ;
5 -> 51 ;
52 [label="entropy = 0.0\nsamples = 1\nvalue = [0, 1]\nclass = Yes"] ;
51 -> 52 ;
53 [label="manner_of_death <= 0.5\nentropy = 0.136\nsamples = 158\nvalue = [155, 3]\nclass = No"] ;
51 -> 53 ;
54 [label="age <= 28.5\nentropy = 0.101\nsamples = 153\nvalue = [151, 2]\nclass = No"] ;
53 -> 54 ;
55 [label="age <= 27.5\nentropy = 0.172\nsamples = 78\nvalue = [76, 2]\nclass = No"] ;
54 -> 55 ;
56 [label="race <= 1.5\nentropy = 0.106\nsamples = 72\nvalue = [71, 1]\nclass = No"] ;
55 -> 56 ;
57 [label="entropy = 0.0\nsamples = 52\nvalue = [52, 0]\nclass = No"] ;
56 -> 57 ;
58 [label="age <= 19.5\nentropy = 0.286\nsamples = 20\nvalue = [19, 1]\nclass = No"] ;
56 -> 58 ;
59 [label="age <= 18.0\nentropy = 0.722\nsamples = 5\nvalue = [4, 1]\nclass = No"] ;
58 -> 59 ;
60 [label="entropy = 0.0\nsamples = 2\nvalue = [2, 0]\nclass = No"] ;
59 -> 60 ;
61 [label="threat_level <= 1.0\nentropy = 0.918\nsamples = 3\nvalue = [2, 1]\nclass = No"] ;
59 -> 61 ;
62 [label="entropy = 1.0\nsamples = 2\nvalue = [1, 1]\nclass = No"] ;
61 -> 62 ;
63 [label="entropy = 0.0\nsamples = 1\nvalue = [1, 0]\nclass = No"] ;
61 -> 63 ;
64 [label="entropy = 0.0\nsamples = 15\nvalue = [15, 0]\nclass = No"] ;
58 -> 64 ;
65 [label="race <= 1.5\nentropy = 0.65\nsamples = 6\nvalue = [5, 1]\nclass = No"] ;
55 -> 65 ;
66 [label="entropy = 0.918\nsamples = 3\nvalue = [2, 1]\nclass = No"] ;
65 -> 66 ;
67 [label="entropy = 0.0\nsamples = 3\nvalue = [3, 0]\nclass = No"] ;
65 -> 67 ;
68 [label="entropy = 0.0\nsamples = 75\nvalue = [75, 0]\nclass = No"] ;
54 -> 68 ;
69 [label="age <= 41.5\nentropy = 0.722\nsamples = 5\nvalue = [4, 1]\nclass = No"] ;
53 -> 69 ;
70 [label="entropy = 0.0\nsamples = 4\nvalue = [4, 0]\nclass = No"] ;
69 -> 70 ;
71 [label="entropy = 0.0\nsamples = 1\nvalue = [0, 1]\nclass = Yes"] ;
69 -> 71 ;
72 [label="armed <= 74.5\nentropy = 0.582\nsamples = 151\nvalue = [130, 21]\nclass = No"] ;
2 -> 72 ;
73 [label="age <= 20.5\nentropy = 0.901\nsamples = 41\nvalue = [28.0, 13.0]\nclass = No"] ;
72 -> 73 ;
74 [label="entropy = 0.0\nsamples = 5\nvalue = [5, 0]\nclass = No"] ;
73 -> 74 ;
75 [label="armed <= 56.0\nentropy = 0.944\nsamples = 36\nvalue = [23, 13]\nclass = No"] ;
73 -> 75 ;
76 [label="flee <= 0.5\nentropy = 0.84\nsamples = 26\nvalue = [19, 7]\nclass = No"] ;
75 -> 76 ;
77 [label="entropy = 0.0\nsamples = 6\nvalue = [6, 0]\nclass = No"] ;
76 -> 77 ;
78 [label="manner_of_death <= 0.5\nentropy = 0.934\nsamples = 20\nvalue = [13, 7]\nclass = No"] ;
76 -> 78 ;
79 [label="armed <= 43.0\nentropy = 0.9\nsamples = 19\nvalue = [13, 6]\nclass = No"] ;
78 -> 79 ;
80 [label="age <= 48.0\nentropy = 0.937\nsamples = 17\nvalue = [11, 6]\nclass = No"] ;
79 -> 80 ;
81 [label="age <= 46.0\nentropy = 0.971\nsamples = 15\nvalue = [9, 6]\nclass = No"] ;
80 -> 81 ;
82 [label="age <= 30.5\nentropy = 0.94\nsamples = 14\nvalue = [9, 5]\nclass = No"] ;
81 -> 82 ;
83 [label="age <= 28.5\nentropy = 1.0\nsamples = 6\nvalue = [3, 3]\nclass = No"] ;
82 -> 83 ;
84 [label="race <= 1.5\nentropy = 0.811\nsamples = 4\nvalue = [3, 1]\nclass = No"] ;
83 -> 84 ;
85 [label="age <= 25.5\nentropy = 1.0\nsamples = 2\nvalue = [1, 1]\nclass = No"] ;
84 -> 85 ;
86 [label="entropy = 0.0\nsamples = 1\nvalue = [0, 1]\nclass = Yes"] ;
85 -> 86 ;
87 [label="entropy = 0.0\nsamples = 1\nvalue = [1, 0]\nclass = No"] ;
85 -> 87 ;
88 [label="entropy = 0.0\nsamples = 2\nvalue = [2, 0]\nclass = No"] ;
84 -> 88 ;
89 [label="entropy = 0.0\nsamples = 2\nvalue = [0, 2]\nclass = Yes"] ;
83 -> 89 ;
90 [label="body_camera <= 0.5\nentropy = 0.811\nsamples = 8\nvalue = [6, 2]\nclass = No"] ;
82 -> 90 ;
91 [label="age <= 33.0\nentropy = 0.918\nsamples = 6\nvalue = [4, 2]\nclass = No"] ;
90 -> 91 ;
92 [label="entropy = 0.0\nsamples = 1\nvalue = [1, 0]\nclass = No"] ;
91 -> 92 ;
93 [label="age <= 35.5\nentropy = 0.971\nsamples = 5\nvalue = [3, 2]\nclass = No"] ;
91 -> 93 ;
94 [label="entropy = 0.0\nsamples = 1\nvalue = [0, 1]\nclass = Yes"] ;
93 -> 94 ;
95 [label="age <= 39.0\nentropy = 0.811\nsamples = 4\nvalue = [3, 1]\nclass = No"] ;
93 -> 95 ;
96 [label="entropy = 0.0\nsamples = 2\nvalue = [2, 0]\nclass = No"] ;
95 -> 96 ;
97 [label="race <= 1.5\nentropy = 1.0\nsamples = 2\nvalue = [1, 1]\nclass = No"] ;
95 -> 97 ;
98 [label="entropy = 0.0\nsamples = 1\nvalue = [0, 1]\nclass = Yes"] ;
97 -> 98 ;
99 [label="entropy = 0.0\nsamples = 1\nvalue = [1, 0]\nclass = No"] ;
97 -> 99 ;
100 [label="entropy = 0.0\nsamples = 2\nvalue = [2, 0]\nclass = No"] ;
90 -> 100 ;
101 [label="entropy = 0.0\nsamples = 1\nvalue = [0, 1]\nclass = Yes"] ;
81 -> 101 ;
102 [label="entropy = 0.0\nsamples = 2\nvalue = [2, 0]\nclass = No"] ;
80 -> 102 ;
103 [label="entropy = 0.0\nsamples = 2\nvalue = [2, 0]\nclass = No"] ;
79 -> 103 ;
104 [label="entropy = 0.0\nsamples = 1\nvalue = [0, 1]\nclass = Yes"] ;
78 -> 104 ;
105 [label="age <= 35.5\nentropy = 0.971\nsamples = 10\nvalue = [4, 6]\nclass = Yes"] ;
75 -> 105 ;
106 [label="race <= 1.5\nentropy = 0.985\nsamples = 7\nvalue = [4, 3]\nclass = No"] ;
105 -> 106 ;
107 [label="flee <= 0.5\nentropy = 0.811\nsamples = 4\nvalue = [1, 3]\nclass = Yes"] ;
106 -> 107 ;
108 [label="entropy = 0.0\nsamples = 1\nvalue = [1, 0]\nclass = No"] ;
107 -> 108 ;
109 [label="entropy = 0.0\nsamples = 3\nvalue = [0, 3]\nclass = Yes"] ;
107 -> 109 ;
110 [label="entropy = 0.0\nsamples = 3\nvalue = [3, 0]\nclass = No"] ;
106 -> 110 ;
111 [label="entropy = 0.0\nsamples = 3\nvalue = [0, 3]\nclass = Yes"] ;
105 -> 111 ;
112 [label="flee <= 0.5\nentropy = 0.376\nsamples = 110\nvalue = [102, 8]\nclass = No"] ;
72 -> 112 ;
113 [label="threat_level <= 0.5\nentropy = 0.208\nsamples = 61\nvalue = [59, 2]\nclass = No"] ;
112 -> 113 ;
114 [label="armed <= 77.0\nentropy = 0.454\nsamples = 21\nvalue = [19, 2]\nclass = No"] ;
113 -> 114 ;
115 [label="armed <= 75.5\nentropy = 0.918\nsamples = 3\nvalue = [2, 1]\nclass = No"] ;
114 -> 115 ;
116 [label="entropy = 0.0\nsamples = 2\nvalue = [2, 0]\nclass = No"] ;
115 -> 116 ;
117 [label="entropy = 0.0\nsamples = 1\nvalue = [0, 1]\nclass = Yes"] ;
115 -> 117 ;
118 [label="race <= 1.5\nentropy = 0.31\nsamples = 18\nvalue = [17, 1]\nclass = No"] ;
114 -> 118 ;
119 [label="entropy = 0.0\nsamples = 12\nvalue = [12, 0]\nclass = No"] ;
118 -> 119 ;
120 [label="age <= 29.0\nentropy = 0.65\nsamples = 6\nvalue = [5, 1]\nclass = No"] ;
118 -> 120 ;
121 [label="entropy = 0.0\nsamples = 3\nvalue = [3, 0]\nclass = No"] ;
120 -> 121 ;
122 [label="age <= 33.5\nentropy = 0.918\nsamples = 3\nvalue = [2, 1]\nclass = No"] ;
120 -> 122 ;
123 [label="entropy = 0.0\nsamples = 1\nvalue = [0, 1]\nclass = Yes"] ;
122 -> 123 ;
124 [label="entropy = 0.0\nsamples = 2\nvalue = [2, 0]\nclass = No"] ;
122 -> 124 ;
125 [label="entropy = 0.0\nsamples = 40\nvalue = [40, 0]\nclass = No"] ;
113 -> 125 ;
126 [label="age <= 33.5\nentropy = 0.536\nsamples = 49\nvalue = [43, 6]\nclass = No"] ;
112 -> 126 ;
127 [label="threat_level <= 0.5\nentropy = 0.33\nsamples = 33\nvalue = [31, 2]\nclass = No"] ;
126 -> 127 ;
128 [label="armed <= 75.5\nentropy = 0.592\nsamples = 14\nvalue = [12, 2]\nclass = No"] ;
127 -> 128 ;
129 [label="age <= 28.5\nentropy = 0.764\nsamples = 9\nvalue = [7, 2]\nclass = No"] ;
128 -> 129 ;
130 [label="age <= 23.5\nentropy = 0.863\nsamples = 7\nvalue = [5, 2]\nclass = No"] ;
129 -> 130 ;
131 [label="age <= 21.0\nentropy = 0.65\nsamples = 6\nvalue = [5, 1]\nclass = No"] ;
130 -> 131 ;
132 [label="age <= 18.0\nentropy = 0.811\nsamples = 4\nvalue = [3, 1]\nclass = No"] ;
131 -> 132 ;
133 [label="entropy = 0.0\nsamples = 1\nvalue = [1, 0]\nclass = No"] ;
132 -> 133 ;
134 [label="entropy = 0.918\nsamples = 3\nvalue = [2, 1]\nclass = No"] ;
132 -> 134 ;
135 [label="entropy = 0.0\nsamples = 2\nvalue = [2, 0]\nclass = No"] ;
131 -> 135 ;
136 [label="entropy = 0.0\nsamples = 1\nvalue = [0, 1]\nclass = Yes"] ;
130 -> 136 ;
137 [label="entropy = 0.0\nsamples = 2\nvalue = [2, 0]\nclass = No"] ;
129 -> 137 ;
138 [label="entropy = 0.0\nsamples = 5\nvalue = [5, 0]\nclass = No"] ;
128 -> 138 ;
139 [label="entropy = 0.0\nsamples = 19\nvalue = [19, 0]\nclass = No"] ;
127 -> 139 ;
140 [label="age <= 39.5\nentropy = 0.811\nsamples = 16\nvalue = [12, 4]\nclass = No"] ;
126 -> 140 ;
141 [label="race <= 1.5\nentropy = 0.971\nsamples = 10\nvalue = [6, 4]\nclass = No"] ;
140 -> 141 ;
142 [label="body_camera <= 0.5\nentropy = 0.65\nsamples = 6\nvalue = [5, 1]\nclass = No"] ;
141 -> 142 ;
143 [label="entropy = 0.0\nsamples = 4\nvalue = [4, 0]\nclass = No"] ;
142 -> 143 ;
144 [label="threat_level <= 0.5\nentropy = 1.0\nsamples = 2\nvalue = [1, 1]\nclass = No"] ;
142 -> 144 ;
145 [label="entropy = 0.0\nsamples = 1\nvalue = [0, 1]\nclass = Yes"] ;
144 -> 145 ;
146 [label="entropy = 0.0\nsamples = 1\nvalue = [1, 0]\nclass = No"] ;
144 -> 146 ;
147 [label="armed <= 75.5\nentropy = 0.811\nsamples = 4\nvalue = [1, 3]\nclass = Yes"] ;
141 -> 147 ;
148 [label="entropy = 0.0\nsamples = 2\nvalue = [0, 2]\nclass = Yes"] ;
147 -> 148 ;
149 [label="threat_level <= 1.5\nentropy = 1.0\nsamples = 2\nvalue = [1, 1]\nclass = No"] ;
147 -> 149 ;
150 [label="entropy = 0.0\nsamples = 1\nvalue = [0, 1]\nclass = Yes"] ;
149 -> 150 ;
151 [label="entropy = 0.0\nsamples = 1\nvalue = [1, 0]\nclass = No"] ;
149 -> 151 ;
152 [label="entropy = 0.0\nsamples = 6\nvalue = [6, 0]\nclass = No"] ;
140 -> 152 ;
153 [label="armed <= 75.5\nentropy = 0.587\nsamples = 376\nvalue = [323, 53]\nclass = No"] ;
1 -> 153 ;
154 [label="age <= 17.5\nentropy = 0.614\nsamples = 343\nvalue = [291, 52]\nclass = No"] ;
153 -> 154 ;
155 [label="threat_level <= 0.5\nentropy = 0.971\nsamples = 5\nvalue = [2, 3]\nclass = Yes"] ;
154 -> 155 ;
156 [label="entropy = 0.0\nsamples = 3\nvalue = [0, 3]\nclass = Yes"] ;
155 -> 156 ;
157 [label="entropy = 0.0\nsamples = 2\nvalue = [2, 0]\nclass = No"] ;
155 -> 157 ;
158 [label="armed <= 13.0\nentropy = 0.597\nsamples = 338\nvalue = [289, 49]\nclass = No"] ;
154 -> 158 ;
159 [label="entropy = 0.0\nsamples = 1\nvalue = [0, 1]\nclass = Yes"] ;
158 -> 159 ;
160 [label="age <= 57.5\nentropy = 0.591\nsamples = 337\nvalue = [289, 48]\nclass = No"] ;
158 -> 160 ;
161 [label="age <= 55.5\nentropy = 0.605\nsamples = 324\nvalue = [276, 48]\nclass = No"] ;
160 -> 161 ;
162 [label="age <= 49.5\nentropy = 0.593\nsamples = 321\nvalue = [275.0, 46.0]\nclass = No"] ;
161 -> 162 ;
163 [label="body_camera <= 0.5\nentropy = 0.614\nsamples = 303\nvalue = [257, 46]\nclass = No"] ;
162 -> 163 ;
164 [label="armed <= 39.5\nentropy = 0.641\nsamples = 270\nvalue = [226, 44]\nclass = No"] ;
163 -> 164 ;
165 [label="age <= 38.5\nentropy = 0.586\nsamples = 213\nvalue = [183, 30]\nclass = No"] ;
164 -> 165 ;
166 [label="flee <= 0.5\nentropy = 0.65\nsamples = 150\nvalue = [125, 25]\nclass = No"] ;
165 -> 166 ;
167 [label="race <= 4.5\nentropy = 0.731\nsamples = 88\nvalue = [70, 18]\nclass = No"] ;
166 -> 167 ;
168 [label="entropy = 0.0\nsamples = 7\nvalue = [7, 0]\nclass = No"] ;
167 -> 168 ;
169 [label="age <= 21.5\nentropy = 0.764\nsamples = 81\nvalue = [63, 18]\nclass = No"] ;
167 -> 169 ;
170 [label="age <= 19.5\nentropy = 1.0\nsamples = 4\nvalue = [2, 2]\nclass = No"] ;
169 -> 170 ;
171 [label="entropy = 0.0\nsamples = 1\nvalue = [1, 0]\nclass = No"] ;
170 -> 171 ;
172 [label="age <= 20.5\nentropy = 0.918\nsamples = 3\nvalue = [1, 2]\nclass = Yes"] ;
170 -> 172 ;
173 [label="entropy = 0.0\nsamples = 1\nvalue = [0, 1]\nclass = Yes"] ;
172 -> 173 ;
174 [label="threat_level <= 0.5\nentropy = 1.0\nsamples = 2\nvalue = [1, 1]\nclass = No"] ;
172 -> 174 ;
175 [label="entropy = 0.0\nsamples = 1\nvalue = [1, 0]\nclass = No"] ;
174 -> 175 ;
176 [label="entropy = 0.0\nsamples = 1\nvalue = [0, 1]\nclass = Yes"] ;
174 -> 176 ;
177 [label="armed <= 32.0\nentropy = 0.737\nsamples = 77\nvalue = [61, 16]\nclass = No"] ;
169 -> 177 ;
178 [label="age <= 34.5\nentropy = 0.748\nsamples = 75\nvalue = [59, 16]\nclass = No"] ;
177 -> 178 ;
179 [label="age <= 27.5\nentropy = 0.796\nsamples = 54\nvalue = [41, 13]\nclass = No"] ;
178 -> 179 ;
180 [label="gender <= 0.5\nentropy = 0.629\nsamples = 19\nvalue = [16, 3]\nclass = No"] ;
179 -> 180 ;
181 [label="entropy = 0.0\nsamples = 1\nvalue = [0, 1]\nclass = Yes"] ;
180 -> 181 ;
182 [label="age <= 25.5\nentropy = 0.503\nsamples = 18\nvalue = [16, 2]\nclass = No"] ;
180 -> 182 ;
183 [label="threat_level <= 0.5\nentropy = 0.592\nsamples = 14\nvalue = [12, 2]\nclass = No"] ;
182 -> 183 ;
184 [label="age <= 24.5\nentropy = 0.684\nsamples = 11\nvalue = [9, 2]\nclass = No"] ;
183 -> 184 ;
185 [label="age <= 23.5\nentropy = 0.544\nsamples = 8\nvalue = [7, 1]\nclass = No"] ;
184 -> 185 ;
186 [label="age <= 22.5\nentropy = 0.722\nsamples = 5\nvalue = [4, 1]\nclass = No"] ;
185 -> 186 ;
187 [label="entropy = 0.0\nsamples = 1\nvalue = [1, 0]\nclass = No"] ;
186 -> 187 ;
188 [label="entropy = 0.811\nsamples = 4\nvalue = [3, 1]\nclass = No"] ;
186 -> 188 ;
189 [label="entropy = 0.0\nsamples = 3\nvalue = [3, 0]\nclass = No"] ;
185 -> 189 ;
190 [label="entropy = 0.918\nsamples = 3\nvalue = [2, 1]\nclass = No"] ;
184 -> 190 ;
191 [label="entropy = 0.0\nsamples = 3\nvalue = [3, 0]\nclass = No"] ;
183 -> 191 ;
192 [label="entropy = 0.0\nsamples = 4\nvalue = [4, 0]\nclass = No"] ;
182 -> 192 ;
193 [label="age <= 29.5\nentropy = 0.863\nsamples = 35\nvalue = [25, 10]\nclass = No"] ;
179 -> 193 ;
194 [label="threat_level <= 0.5\nentropy = 0.971\nsamples = 5\nvalue = [2, 3]\nclass = Yes"] ;
193 -> 194 ;
195 [label="age <= 28.5\nentropy = 1.0\nsamples = 4\nvalue = [2, 2]\nclass = No"] ;
194 -> 195 ;
196 [label="entropy = 1.0\nsamples = 2\nvalue = [1, 1]\nclass = No"] ;
195 -> 196 ;
197 [label="entropy = 1.0\nsamples = 2\nvalue = [1, 1]\nclass = No"] ;
195 -> 197 ;
198 [label="entropy = 0.0\nsamples = 1\nvalue = [0, 1]\nclass = Yes"] ;
194 -> 198 ;
199 [label="gender <= 0.5\nentropy = 0.784\nsamples = 30\nvalue = [23, 7]\nclass = No"] ;
193 -> 199 ;
200 [label="entropy = 0.0\nsamples = 2\nvalue = [2, 0]\nclass = No"] ;
199 -> 200 ;
201 [label="age <= 33.5\nentropy = 0.811\nsamples = 28\nvalue = [21, 7]\nclass = No"] ;
199 -> 201 ;
202 [label="manner_of_death <= 0.5\nentropy = 0.722\nsamples = 20\nvalue = [16, 4]\nclass = No"] ;
201 -> 202 ;
203 [label="age <= 31.5\nentropy = 0.742\nsamples = 19\nvalue = [15, 4]\nclass = No"] ;
202 -> 203 ;
204 [label="threat_level <= 0.5\nentropy = 0.811\nsamples = 12\nvalue = [9, 3]\nclass = No"] ;
203 -> 204 ;
205 [label="age <= 30.5\nentropy = 0.954\nsamples = 8\nvalue = [5, 3]\nclass = No"] ;
204 -> 205 ;
206 [label="entropy = 0.863\nsamples = 7\nvalue = [5, 2]\nclass = No"] ;
205 -> 206 ;
207 [label="entropy = 0.0\nsamples = 1\nvalue = [0, 1]\nclass = Yes"] ;
205 -> 207 ;
208 [label="entropy = 0.0\nsamples = 4\nvalue = [4, 0]\nclass = No"] ;
204 -> 208 ;
209 [label="threat_level <= 0.5\nentropy = 0.592\nsamples = 7\nvalue = [6, 1]\nclass = No"] ;
203 -> 209 ;
210 [label="entropy = 0.0\nsamples = 5\nvalue = [5, 0]\nclass = No"] ;
209 -> 210 ;
211 [label="entropy = 1.0\nsamples = 2\nvalue = [1, 1]\nclass = No"] ;
209 -> 211 ;
212 [label="entropy = 0.0\nsamples = 1\nvalue = [1, 0]\nclass = No"] ;
202 -> 212 ;
213 [label="threat_level <= 0.5\nentropy = 0.954\nsamples = 8\nvalue = [5, 3]\nclass = No"] ;
201 -> 213 ;
214 [label="entropy = 0.971\nsamples = 5\nvalue = [3, 2]\nclass = No"] ;
213 -> 214 ;
215 [label="entropy = 0.918\nsamples = 3\nvalue = [2, 1]\nclass = No"] ;
213 -> 215 ;
216 [label="age <= 36.5\nentropy = 0.592\nsamples = 21\nvalue = [18, 3]\nclass = No"] ;
178 -> 216 ;
217 [label="age <= 35.5\nentropy = 0.391\nsamples = 13\nvalue = [12, 1]\nclass = No"] ;
216 -> 217 ;
218 [label="entropy = 0.544\nsamples = 8\nvalue = [7, 1]\nclass = No"] ;
217 -> 218 ;
219 [label="entropy = 0.0\nsamples = 5\nvalue = [5, 0]\nclass = No"] ;
217 -> 219 ;
220 [label="gender <= 0.5\nentropy = 0.811\nsamples = 8\nvalue = [6, 2]\nclass = No"] ;
216 -> 220 ;
221 [label="entropy = 0.0\nsamples = 2\nvalue = [2, 0]\nclass = No"] ;
220 -> 221 ;
222 [label="age <= 37.5\nentropy = 0.918\nsamples = 6\nvalue = [4, 2]\nclass = No"] ;
220 -> 222 ;
223 [label="entropy = 1.0\nsamples = 2\nvalue = [1, 1]\nclass = No"] ;
222 -> 223 ;
224 [label="entropy = 0.811\nsamples = 4\nvalue = [3, 1]\nclass = No"] ;
222 -> 224 ;
225 [label="entropy = 0.0\nsamples = 2\nvalue = [2, 0]\nclass = No"] ;
177 -> 225 ;
226 [label="race <= 4.0\nentropy = 0.509\nsamples = 62\nvalue = [55, 7]\nclass = No"] ;
166 -> 226 ;
227 [label="age <= 24.0\nentropy = 0.971\nsamples = 5\nvalue = [3, 2]\nclass = No"] ;
226 -> 227 ;
228 [label="entropy = 0.0\nsamples = 1\nvalue = [0, 1]\nclass = Yes"] ;
227 -> 228 ;
229 [label="age <= 35.0\nentropy = 0.811\nsamples = 4\nvalue = [3, 1]\nclass = No"] ;
227 -> 229 ;
230 [label="entropy = 0.0\nsamples = 3\nvalue = [3, 0]\nclass = No"] ;
229 -> 230 ;
231 [label="entropy = 0.0\nsamples = 1\nvalue = [0, 1]\nclass = Yes"] ;
229 -> 231 ;
232 [label="age <= 33.5\nentropy = 0.429\nsamples = 57\nvalue = [52, 5]\nclass = No"] ;
226 -> 232 ;
233 [label="age <= 21.5\nentropy = 0.496\nsamples = 46\nvalue = [41, 5]\nclass = No"] ;
232 -> 233 ;
234 [label="entropy = 0.0\nsamples = 7\nvalue = [7, 0]\nclass = No"] ;
233 -> 234 ;
235 [label="age <= 22.5\nentropy = 0.552\nsamples = 39\nvalue = [34, 5]\nclass = No"] ;
233 -> 235 ;
236 [label="threat_level <= 0.5\nentropy = 1.0\nsamples = 2\nvalue = [1, 1]\nclass = No"] ;
235 -> 236 ;
237 [label="entropy = 0.0\nsamples = 1\nvalue = [0, 1]\nclass = Yes"] ;
236 -> 237 ;
238 [label="entropy = 0.0\nsamples = 1\nvalue = [1, 0]\nclass = No"] ;
236 -> 238 ;
239 [label="age <= 26.5\nentropy = 0.494\nsamples = 37\nvalue = [33, 4]\nclass = No"] ;
235 -> 239 ;
240 [label="entropy = 0.0\nsamples = 12\nvalue = [12, 0]\nclass = No"] ;
239 -> 240 ;
241 [label="age <= 32.5\nentropy = 0.634\nsamples = 25\nvalue = [21, 4]\nclass = No"] ;
239 -> 241 ;
242 [label="age <= 30.5\nentropy = 0.575\nsamples = 22\nvalue = [19, 3]\nclass = No"] ;
241 -> 242 ;
243 [label="age <= 28.5\nentropy = 0.696\nsamples = 16\nvalue = [13, 3]\nclass = No"] ;
242 -> 243 ;
244 [label="age <= 27.5\nentropy = 0.544\nsamples = 8\nvalue = [7, 1]\nclass = No"] ;
243 -> 244 ;
245 [label="threat_level <= 0.5\nentropy = 0.811\nsamples = 4\nvalue = [3, 1]\nclass = No"] ;
244 -> 245 ;
246 [label="entropy = 0.918\nsamples = 3\nvalue = [2, 1]\nclass = No"] ;
245 -> 246 ;
247 [label="entropy = 0.0\nsamples = 1\nvalue = [1, 0]\nclass = No"] ;
245 -> 247 ;
248 [label="entropy = 0.0\nsamples = 4\nvalue = [4, 0]\nclass = No"] ;
244 -> 248 ;
249 [label="threat_level <= 0.5\nentropy = 0.811\nsamples = 8\nvalue = [6, 2]\nclass = No"] ;
243 -> 249 ;
250 [label="age <= 29.5\nentropy = 0.722\nsamples = 5\nvalue = [4, 1]\nclass = No"] ;
249 -> 250 ;
251 [label="entropy = 0.918\nsamples = 3\nvalue = [2, 1]\nclass = No"] ;
250 -> 251 ;
252 [label="entropy = 0.0\nsamples = 2\nvalue = [2, 0]\nclass = No"] ;
250 -> 252 ;
253 [label="age <= 29.5\nentropy = 0.918\nsamples = 3\nvalue = [2, 1]\nclass = No"] ;
249 -> 253 ;
254 [label="entropy = 0.0\nsamples = 1\nvalue = [1, 0]\nclass = No"] ;
253 -> 254 ;
255 [label="entropy = 1.0\nsamples = 2\nvalue = [1, 1]\nclass = No"] ;
253 -> 255 ;
256 [label="entropy = 0.0\nsamples = 6\nvalue = [6, 0]\nclass = No"] ;
242 -> 256 ;
257 [label="entropy = 0.918\nsamples = 3\nvalue = [2, 1]\nclass = No"] ;
241 -> 257 ;
258 [label="entropy = 0.0\nsamples = 11\nvalue = [11, 0]\nclass = No"] ;
232 -> 258 ;
259 [label="age <= 44.5\nentropy = 0.4\nsamples = 63\nvalue = [58, 5]\nclass = No"] ;
165 -> 259 ;
260 [label="threat_level <= 0.5\nentropy = 0.179\nsamples = 37\nvalue = [36, 1]\nclass = No"] ;
259 -> 260 ;
261 [label="entropy = 0.0\nsamples = 32\nvalue = [32, 0]\nclass = No"] ;
260 -> 261 ;
262 [label="threat_level <= 1.5\nentropy = 0.722\nsamples = 5\nvalue = [4, 1]\nclass = No"] ;
260 -> 262 ;
263 [label="age <= 39.5\nentropy = 0.918\nsamples = 3\nvalue = [2, 1]\nclass = No"] ;
262 -> 263 ;
264 [label="entropy = 0.0\nsamples = 1\nvalue = [1, 0]\nclass = No"] ;
263 -> 264 ;
265 [label="entropy = 1.0\nsamples = 2\nvalue = [1, 1]\nclass = No"] ;
263 -> 265 ;
266 [label="entropy = 0.0\nsamples = 2\nvalue = [2, 0]\nclass = No"] ;
262 -> 266 ;
267 [label="gender <= 0.5\nentropy = 0.619\nsamples = 26\nvalue = [22, 4]\nclass = No"] ;
259 -> 267 ;
268 [label="threat_level <= 0.5\nentropy = 1.0\nsamples = 2\nvalue = [1, 1]\nclass = No"] ;
267 -> 268 ;
269 [label="entropy = 0.0\nsamples = 1\nvalue = [0, 1]\nclass = Yes"] ;
268 -> 269 ;
270 [label="entropy = 0.0\nsamples = 1\nvalue = [1, 0]\nclass = No"] ;
268 -> 270 ;
271 [label="threat_level <= 0.5\nentropy = 0.544\nsamples = 24\nvalue = [21, 3]\nclass = No"] ;
267 -> 271 ;
272 [label="age <= 48.5\nentropy = 0.592\nsamples = 21\nvalue = [18, 3]\nclass = No"] ;
271 -> 272 ;
273 [label="age <= 47.5\nentropy = 0.485\nsamples = 19\nvalue = [17, 2]\nclass = No"] ;
272 -> 273 ;
274 [label="flee <= 0.5\nentropy = 0.619\nsamples = 13\nvalue = [11, 2]\nclass = No"] ;
273 -> 274 ;
275 [label="age <= 46.5\nentropy = 0.811\nsamples = 8\nvalue = [6, 2]\nclass = No"] ;
274 -> 275 ;
276 [label="age <= 45.5\nentropy = 0.592\nsamples = 7\nvalue = [6, 1]\nclass = No"] ;
275 -> 276 ;
277 [label="entropy = 0.722\nsamples = 5\nvalue = [4, 1]\nclass = No"] ;
276 -> 277 ;
278 [label="entropy = 0.0\nsamples = 2\nvalue = [2, 0]\nclass = No"] ;
276 -> 278 ;
279 [label="entropy = 0.0\nsamples = 1\nvalue = [0, 1]\nclass = Yes"] ;
275 -> 279 ;
280 [label="entropy = 0.0\nsamples = 5\nvalue = [5, 0]\nclass = No"] ;
274 -> 280 ;
281 [label="entropy = 0.0\nsamples = 6\nvalue = [6, 0]\nclass = No"] ;
273 -> 281 ;
282 [label="entropy = 1.0\nsamples = 2\nvalue = [1, 1]\nclass = No"] ;
272 -> 282 ;
283 [label="entropy = 0.0\nsamples = 3\nvalue = [3, 0]\nclass = No"] ;
271 -> 283 ;
284 [label="age <= 43.5\nentropy = 0.804\nsamples = 57\nvalue = [43, 14]\nclass = No"] ;
164 -> 284 ;
285 [label="age <= 37.5\nentropy = 0.68\nsamples = 50\nvalue = [41, 9]\nclass = No"] ;
284 -> 285 ;
286 [label="age <= 34.5\nentropy = 0.74\nsamples = 43\nvalue = [34, 9]\nclass = No"] ;
285 -> 286 ;
287 [label="age <= 29.5\nentropy = 0.571\nsamples = 37\nvalue = [32, 5]\nclass = No"] ;
286 -> 287 ;
288 [label="age <= 28.5\nentropy = 0.722\nsamples = 25\nvalue = [20, 5]\nclass = No"] ;
287 -> 288 ;
289 [label="race <= 4.5\nentropy = 0.65\nsamples = 24\nvalue = [20, 4]\nclass = No"] ;
288 -> 289 ;
290 [label="entropy = 0.0\nsamples = 4\nvalue = [4, 0]\nclass = No"] ;
289 -> 290 ;
291 [label="age <= 19.5\nentropy = 0.722\nsamples = 20\nvalue = [16, 4]\nclass = No"] ;
289 -> 291 ;
292 [label="flee <= 0.5\nentropy = 1.0\nsamples = 2\nvalue = [1, 1]\nclass = No"] ;
291 -> 292 ;
293 [label="entropy = 0.0\nsamples = 1\nvalue = [0, 1]\nclass = Yes"] ;
292 -> 293 ;
294 [label="entropy = 0.0\nsamples = 1\nvalue = [1, 0]\nclass = No"] ;
292 -> 294 ;
295 [label="flee <= 0.5\nentropy = 0.65\nsamples = 18\nvalue = [15, 3]\nclass = No"] ;
291 -> 295 ;
296 [label="entropy = 0.0\nsamples = 8\nvalue = [8, 0]\nclass = No"] ;
295 -> 296 ;
297 [label="age <= 24.0\nentropy = 0.881\nsamples = 10\nvalue = [7, 3]\nclass = No"] ;
295 -> 297 ;
298 [label="entropy = 0.0\nsamples = 2\nvalue = [2, 0]\nclass = No"] ;
297 -> 298 ;
299 [label="threat_level <= 0.5\nentropy = 0.954\nsamples = 8\nvalue = [5, 3]\nclass = No"] ;
297 -> 299 ;
300 [label="entropy = 0.0\nsamples = 1\nvalue = [1, 0]\nclass = No"] ;
299 -> 300 ;
301 [label="armed <= 61.0\nentropy = 0.985\nsamples = 7\nvalue = [4, 3]\nclass = No"] ;
299 -> 301 ;
302 [label="armed <= 44.0\nentropy = 0.918\nsamples = 6\nvalue = [4, 2]\nclass = No"] ;
301 -> 302 ;
303 [label="age <= 25.5\nentropy = 0.971\nsamples = 5\nvalue = [3, 2]\nclass = No"] ;
302 -> 303 ;
304 [label="entropy = 0.0\nsamples = 1\nvalue = [1, 0]\nclass = No"] ;
303 -> 304 ;
305 [label="age <= 26.5\nentropy = 1.0\nsamples = 4\nvalue = [2, 2]\nclass = No"] ;
303 -> 305 ;
306 [label="entropy = 1.0\nsamples = 2\nvalue = [1, 1]\nclass = No"] ;
305 -> 306 ;
307 [label="entropy = 1.0\nsamples = 2\nvalue = [1, 1]\nclass = No"] ;
305 -> 307 ;
308 [label="entropy = 0.0\nsamples = 1\nvalue = [1, 0]\nclass = No"] ;
302 -> 308 ;
309 [label="entropy = 0.0\nsamples = 1\nvalue = [0, 1]\nclass = Yes"] ;
301 -> 309 ;
310 [label="entropy = 0.0\nsamples = 1\nvalue = [0, 1]\nclass = Yes"] ;
288 -> 310 ;
311 [label="entropy = 0.0\nsamples = 12\nvalue = [12, 0]\nclass = No"] ;
287 -> 311 ;
312 [label="armed <= 57.0\nentropy = 0.918\nsamples = 6\nvalue = [2, 4]\nclass = Yes"] ;
286 -> 312 ;
313 [label="entropy = 0.0\nsamples = 3\nvalue = [0, 3]\nclass = Yes"] ;
312 -> 313 ;
314 [label="age <= 36.5\nentropy = 0.918\nsamples = 3\nvalue = [2, 1]\nclass = No"] ;
312 -> 314 ;
315 [label="entropy = 0.0\nsamples = 2\nvalue = [2, 0]\nclass = No"] ;
314 -> 315 ;
316 [label="entropy = 0.0\nsamples = 1\nvalue = [0, 1]\nclass = Yes"] ;
314 -> 316 ;
317 [label="entropy = 0.0\nsamples = 7\nvalue = [7, 0]\nclass = No"] ;
285 -> 317 ;
318 [label="armed <= 44.5\nentropy = 0.863\nsamples = 7\nvalue = [2, 5]\nclass = Yes"] ;
284 -> 318 ;
319 [label="threat_level <= 0.5\nentropy = 1.0\nsamples = 4\nvalue = [2, 2]\nclass = No"] ;
318 -> 319 ;
320 [label="entropy = 0.0\nsamples = 1\nvalue = [1, 0]\nclass = No"] ;
319 -> 320 ;
321 [label="age <= 46.5\nentropy = 0.918\nsamples = 3\nvalue = [1, 2]\nclass = Yes"] ;
319 -> 321 ;
322 [label="entropy = 1.0\nsamples = 2\nvalue = [1, 1]\nclass = No"] ;
321 -> 322 ;
323 [label="entropy = 0.0\nsamples = 1\nvalue = [0, 1]\nclass = Yes"] ;
321 -> 323 ;
324 [label="entropy = 0.0\nsamples = 3\nvalue = [0, 3]\nclass = Yes"] ;
318 -> 324 ;
325 [label="age <= 19.5\nentropy = 0.33\nsamples = 33\nvalue = [31, 2]\nclass = No"] ;
163 -> 325 ;
326 [label="armed <= 52.5\nentropy = 0.918\nsamples = 3\nvalue = [2, 1]\nclass = No"] ;
325 -> 326 ;
327 [label="entropy = 0.0\nsamples = 2\nvalue = [2, 0]\nclass = No"] ;
326 -> 327 ;
328 [label="entropy = 0.0\nsamples = 1\nvalue = [0, 1]\nclass = Yes"] ;
326 -> 328 ;
329 [label="age <= 33.5\nentropy = 0.211\nsamples = 30\nvalue = [29, 1]\nclass = No"] ;
325 -> 329 ;
330 [label="entropy = 0.0\nsamples = 22\nvalue = [22, 0]\nclass = No"] ;
329 -> 330 ;
331 [label="age <= 34.5\nentropy = 0.544\nsamples = 8\nvalue = [7, 1]\nclass = No"] ;
329 -> 331 ;
332 [label="entropy = 1.0\nsamples = 2\nvalue = [1, 1]\nclass = No"] ;
331 -> 332 ;
333 [label="entropy = 0.0\nsamples = 6\nvalue = [6, 0]\nclass = No"] ;
331 -> 333 ;
334 [label="entropy = 0.0\nsamples = 18\nvalue = [18, 0]\nclass = No"] ;
162 -> 334 ;
335 [label="age <= 56.5\nentropy = 0.918\nsamples = 3\nvalue = [1, 2]\nclass = Yes"] ;
161 -> 335 ;
336 [label="entropy = 0.0\nsamples = 1\nvalue = [0, 1]\nclass = Yes"] ;
335 -> 336 ;
337 [label="body_camera <= 0.5\nentropy = 1.0\nsamples = 2\nvalue = [1, 1]\nclass = No"] ;
335 -> 337 ;
338 [label="entropy = 0.0\nsamples = 1\nvalue = [1, 0]\nclass = No"] ;
337 -> 338 ;
339 [label="entropy = 0.0\nsamples = 1\nvalue = [0, 1]\nclass = Yes"] ;
337 -> 339 ;
340 [label="entropy = 0.0\nsamples = 13\nvalue = [13, 0]\nclass = No"] ;
160 -> 340 ;
341 [label="gender <= 0.5\nentropy = 0.196\nsamples = 33\nvalue = [32, 1]\nclass = No"] ;
153 -> 341 ;
342 [label="age <= 36.0\nentropy = 1.0\nsamples = 2\nvalue = [1, 1]\nclass = No"] ;
341 -> 342 ;
343 [label="entropy = 0.0\nsamples = 1\nvalue = [0, 1]\nclass = Yes"] ;
342 -> 343 ;
344 [label="entropy = 0.0\nsamples = 1\nvalue = [1, 0]\nclass = No"] ;
342 -> 344 ;
345 [label="entropy = 0.0\nsamples = 31\nvalue = [31, 0]\nclass = No"] ;
341 -> 345 ;
346 [label="race <= 3.5\nentropy = 0.879\nsamples = 2128\nvalue = [1494, 634]\nclass = No"] ;
0 -> 346 [labeldistance=2.5, labelangle=-45, headlabel="False"] ;
347 [label="armed <= 40.5\nentropy = 0.763\nsamples = 948\nvalue = [738, 210]\nclass = No"] ;
346 -> 347 ;
348 [label="armed <= 25.0\nentropy = 0.649\nsamples = 542\nvalue = [452, 90]\nclass = No"] ;
347 -> 348 ;
349 [label="manner_of_death <= 0.5\nentropy = 0.999\nsamples = 25\nvalue = [13, 12]\nclass = No"] ;
348 -> 349 ;
350 [label="age <= 27.5\nentropy = 0.985\nsamples = 21\nvalue = [9, 12]\nclass = Yes"] ;
349 -> 350 ;
351 [label="entropy = 0.0\nsamples = 5\nvalue = [0, 5]\nclass = Yes"] ;
350 -> 351 ;
352 [label="age <= 46.5\nentropy = 0.989\nsamples = 16\nvalue = [9, 7]\nclass = No"] ;
350 -> 352 ;
353 [label="race <= 1.5\nentropy = 0.811\nsamples = 12\nvalue = [9, 3]\nclass = No"] ;
352 -> 353 ;
354 [label="entropy = 0.0\nsamples = 4\nvalue = [4, 0]\nclass = No"] ;
353 -> 354 ;
355 [label="body_camera <= 0.5\nentropy = 0.954\nsamples = 8\nvalue = [5, 3]\nclass = No"] ;
353 -> 355 ;
356 [label="age <= 39.0\nentropy = 0.65\nsamples = 6\nvalue = [5, 1]\nclass = No"] ;
355 -> 356 ;
357 [label="entropy = 0.0\nsamples = 4\nvalue = [4, 0]\nclass = No"] ;
356 -> 357 ;
358 [label="race <= 2.5\nentropy = 1.0\nsamples = 2\nvalue = [1, 1]\nclass = No"] ;
356 -> 358 ;
359 [label="entropy = 0.0\nsamples = 1\nvalue = [0, 1]\nclass = Yes"] ;
358 -> 359 ;
360 [label="entropy = 0.0\nsamples = 1\nvalue = [1, 0]\nclass = No"] ;
358 -> 360 ;
361 [label="entropy = 0.0\nsamples = 2\nvalue = [0, 2]\nclass = Yes"] ;
355 -> 361 ;
362 [label="entropy = 0.0\nsamples = 4\nvalue = [0, 4]\nclass = Yes"] ;
352 -> 362 ;
363 [label="entropy = 0.0\nsamples = 4\nvalue = [4, 0]\nclass = No"] ;
349 -> 363 ;
364 [label="age <= 63.5\nentropy = 0.612\nsamples = 517\nvalue = [439, 78]\nclass = No"] ;
348 -> 364 ;
365 [label="age <= 53.5\nentropy = 0.599\nsamples = 508\nvalue = [434, 74]\nclass = No"] ;
364 -> 365 ;
366 [label="age <= 52.5\nentropy = 0.614\nsamples = 488\nvalue = [414, 74]\nclass = No"] ;
365 -> 366 ;
367 [label="body_camera <= 0.5\nentropy = 0.603\nsamples = 482\nvalue = [411, 71]\nclass = No"] ;
366 -> 367 ;
368 [label="age <= 43.5\nentropy = 0.573\nsamples = 420\nvalue = [363.0, 57.0]\nclass = No"] ;
367 -> 368 ;
369 [label="age <= 41.5\nentropy = 0.601\nsamples = 369\nvalue = [315, 54]\nclass = No"] ;
368 -> 369 ;
370 [label="flee <= 2.5\nentropy = 0.568\nsamples = 351\nvalue = [304, 47]\nclass = No"] ;
369 -> 370 ;
371 [label="race <= 1.5\nentropy = 0.589\nsamples = 324\nvalue = [278, 46]\nclass = No"] ;
370 -> 371 ;
372 [label="age <= 28.5\nentropy = 0.523\nsamples = 204\nvalue = [180, 24]\nclass = No"] ;
371 -> 372 ;
373 [label="age <= 26.5\nentropy = 0.356\nsamples = 104\nvalue = [97, 7]\nclass = No"] ;
372 -> 373 ;
374 [label="age <= 18.5\nentropy = 0.407\nsamples = 86\nvalue = [79.0, 7.0]\nclass = No"] ;
373 -> 374 ;
375 [label="entropy = 0.0\nsamples = 12\nvalue = [12, 0]\nclass = No"] ;
374 -> 375 ;
376 [label="threat_level <= 0.5\nentropy = 0.452\nsamples = 74\nvalue = [67, 7]\nclass = No"] ;
374 -> 376 ;
377 [label="age <= 21.5\nentropy = 0.362\nsamples = 58\nvalue = [54, 4]\nclass = No"] ;
376 -> 377 ;
378 [label="age <= 19.5\nentropy = 0.592\nsamples = 14\nvalue = [12, 2]\nclass = No"] ;
377 -> 378 ;
379 [label="entropy = 0.0\nsamples = 3\nvalue = [3, 0]\nclass = No"] ;
378 -> 379 ;
380 [label="gender <= 0.5\nentropy = 0.684\nsamples = 11\nvalue = [9, 2]\nclass = No"] ;
378 -> 380 ;
381 [label="entropy = 0.0\nsamples = 1\nvalue = [1, 0]\nclass = No"] ;
380 -> 381 ;
382 [label="race <= 0.5\nentropy = 0.722\nsamples = 10\nvalue = [8, 2]\nclass = No"] ;
380 -> 382 ;
383 [label="entropy = 0.0\nsamples = 1\nvalue = [1, 0]\nclass = No"] ;
382 -> 383 ;
384 [label="age <= 20.5\nentropy = 0.764\nsamples = 9\nvalue = [7, 2]\nclass = No"] ;
382 -> 384 ;
385 [label="entropy = 0.722\nsamples = 5\nvalue = [4, 1]\nclass = No"] ;
384 -> 385 ;
386 [label="entropy = 0.811\nsamples = 4\nvalue = [3, 1]\nclass = No"] ;
384 -> 386 ;
387 [label="age <= 25.5\nentropy = 0.267\nsamples = 44\nvalue = [42, 2]\nclass = No"] ;
377 -> 387 ;
388 [label="age <= 23.5\nentropy = 0.176\nsamples = 38\nvalue = [37, 1]\nclass = No"] ;
387 -> 388 ;
389 [label="age <= 22.5\nentropy = 0.353\nsamples = 15\nvalue = [14, 1]\nclass = No"] ;
388 -> 389 ;
390 [label="entropy = 0.0\nsamples = 8\nvalue = [8, 0]\nclass = No"] ;
389 -> 390 ;
391 [label="gender <= 0.5\nentropy = 0.592\nsamples = 7\nvalue = [6, 1]\nclass = No"] ;
389 -> 391 ;
392 [label="entropy = 0.0\nsamples = 1\nvalue = [1, 0]\nclass = No"] ;
391 -> 392 ;
393 [label="entropy = 0.65\nsamples = 6\nvalue = [5, 1]\nclass = No"] ;
391 -> 393 ;
394 [label="entropy = 0.0\nsamples = 23\nvalue = [23, 0]\nclass = No"] ;
388 -> 394 ;
395 [label="gender <= 0.5\nentropy = 0.65\nsamples = 6\nvalue = [5, 1]\nclass = No"] ;
387 -> 395 ;
396 [label="entropy = 0.0\nsamples = 1\nvalue = [1, 0]\nclass = No"] ;
395 -> 396 ;
397 [label="entropy = 0.722\nsamples = 5\nvalue = [4, 1]\nclass = No"] ;
395 -> 397 ;
398 [label="age <= 19.5\nentropy = 0.696\nsamples = 16\nvalue = [13, 3]\nclass = No"] ;
376 -> 398 ;
399 [label="entropy = 1.0\nsamples = 2\nvalue = [1, 1]\nclass = No"] ;
398 -> 399 ;
400 [label="age <= 22.5\nentropy = 0.592\nsamples = 14\nvalue = [12, 2]\nclass = No"] ;
398 -> 400 ;
401 [label="entropy = 0.0\nsamples = 6\nvalue = [6, 0]\nclass = No"] ;
400 -> 401 ;
402 [label="threat_level <= 1.5\nentropy = 0.811\nsamples = 8\nvalue = [6, 2]\nclass = No"] ;
400 -> 402 ;
403 [label="age <= 25.5\nentropy = 0.918\nsamples = 6\nvalue = [4, 2]\nclass = No"] ;
402 -> 403 ;
404 [label="age <= 24.0\nentropy = 0.971\nsamples = 5\nvalue = [3, 2]\nclass = No"] ;
403 -> 404 ;
405 [label="entropy = 1.0\nsamples = 2\nvalue = [1, 1]\nclass = No"] ;
404 -> 405 ;
406 [label="entropy = 0.918\nsamples = 3\nvalue = [2, 1]\nclass = No"] ;
404 -> 406 ;
407 [label="entropy = 0.0\nsamples = 1\nvalue = [1, 0]\nclass = No"] ;
403 -> 407 ;
408 [label="entropy = 0.0\nsamples = 2\nvalue = [2, 0]\nclass = No"] ;
402 -> 408 ;
409 [label="entropy = 0.0\nsamples = 18\nvalue = [18, 0]\nclass = No"] ;
373 -> 409 ;
410 [label="armed <= 33.5\nentropy = 0.658\nsamples = 100\nvalue = [83, 17]\nclass = No"] ;
372 -> 410 ;
411 [label="age <= 32.5\nentropy = 0.638\nsamples = 99\nvalue = [83, 16]\nclass = No"] ;
410 -> 411 ;
412 [label="gender <= 0.5\nentropy = 0.801\nsamples = 41\nvalue = [31, 10]\nclass = No"] ;
411 -> 412 ;
413 [label="age <= 31.0\nentropy = 0.918\nsamples = 3\nvalue = [1, 2]\nclass = Yes"] ;
412 -> 413 ;
414 [label="entropy = 0.0\nsamples = 1\nvalue = [1, 0]\nclass = No"] ;
413 -> 414 ;
415 [label="entropy = 0.0\nsamples = 2\nvalue = [0, 2]\nclass = Yes"] ;
413 -> 415 ;
416 [label="threat_level <= 0.5\nentropy = 0.742\nsamples = 38\nvalue = [30, 8]\nclass = No"] ;
412 -> 416 ;
417 [label="age <= 30.5\nentropy = 0.799\nsamples = 33\nvalue = [25, 8]\nclass = No"] ;
416 -> 417 ;
418 [label="age <= 29.5\nentropy = 0.94\nsamples = 14\nvalue = [9, 5]\nclass = No"] ;
417 -> 418 ;
419 [label="entropy = 0.985\nsamples = 7\nvalue = [4, 3]\nclass = No"] ;
418 -> 419 ;
420 [label="entropy = 0.863\nsamples = 7\nvalue = [5, 2]\nclass = No"] ;
418 -> 420 ;
421 [label="manner_of_death <= 0.5\nentropy = 0.629\nsamples = 19\nvalue = [16, 3]\nclass = No"] ;
417 -> 421 ;
422 [label="age <= 31.5\nentropy = 0.672\nsamples = 17\nvalue = [14, 3]\nclass = No"] ;
421 -> 422 ;
423 [label="entropy = 0.722\nsamples = 10\nvalue = [8, 2]\nclass = No"] ;
422 -> 423 ;
424 [label="entropy = 0.592\nsamples = 7\nvalue = [6, 1]\nclass = No"] ;
422 -> 424 ;
425 [label="entropy = 0.0\nsamples = 2\nvalue = [2, 0]\nclass = No"] ;
421 -> 425 ;
426 [label="entropy = 0.0\nsamples = 5\nvalue = [5, 0]\nclass = No"] ;
416 -> 426 ;
427 [label="age <= 33.5\nentropy = 0.48\nsamples = 58\nvalue = [52, 6]\nclass = No"] ;
411 -> 427 ;
428 [label="entropy = 0.0\nsamples = 14\nvalue = [14, 0]\nclass = No"] ;
427 -> 428 ;
429 [label="threat_level <= 0.5\nentropy = 0.575\nsamples = 44\nvalue = [38, 6]\nclass = No"] ;
427 -> 429 ;
430 [label="age <= 38.5\nentropy = 0.629\nsamples = 38\nvalue = [32, 6]\nclass = No"] ;
429 -> 430 ;
431 [label="race <= 0.5\nentropy = 0.691\nsamples = 27\nvalue = [22, 5]\nclass = No"] ;
430 -> 431 ;
432 [label="entropy = 0.0\nsamples = 3\nvalue = [3, 0]\nclass = No"] ;
431 -> 432 ;
433 [label="age <= 37.5\nentropy = 0.738\nsamples = 24\nvalue = [19, 5]\nclass = No"] ;
431 -> 433 ;
434 [label="age <= 36.5\nentropy = 0.672\nsamples = 17\nvalue = [14, 3]\nclass = No"] ;
433 -> 434 ;
435 [label="age <= 35.5\nentropy = 0.65\nsamples = 12\nvalue = [10, 2]\nclass = No"] ;
434 -> 435 ;
436 [label="age <= 34.5\nentropy = 0.684\nsamples = 11\nvalue = [9, 2]\nclass = No"] ;
435 -> 436 ;
437 [label="entropy = 0.65\nsamples = 6\nvalue = [5, 1]\nclass = No"] ;
436 -> 437 ;
438 [label="entropy = 0.722\nsamples = 5\nvalue = [4, 1]\nclass = No"] ;
436 -> 438 ;
439 [label="entropy = 0.0\nsamples = 1\nvalue = [1, 0]\nclass = No"] ;
435 -> 439 ;
440 [label="entropy = 0.722\nsamples = 5\nvalue = [4, 1]\nclass = No"] ;
434 -> 440 ;
441 [label="entropy = 0.863\nsamples = 7\nvalue = [5, 2]\nclass = No"] ;
433 -> 441 ;
442 [label="race <= 0.5\nentropy = 0.439\nsamples = 11\nvalue = [10, 1]\nclass = No"] ;
430 -> 442 ;
443 [label="age <= 40.0\nentropy = 0.918\nsamples = 3\nvalue = [2, 1]\nclass = No"] ;
442 -> 443 ;
444 [label="entropy = 0.0\nsamples = 1\nvalue = [1, 0]\nclass = No"] ;
443 -> 444 ;
445 [label="entropy = 1.0\nsamples = 2\nvalue = [1, 1]\nclass = No"] ;
443 -> 445 ;
446 [label="entropy = 0.0\nsamples = 8\nvalue = [8, 0]\nclass = No"] ;
442 -> 446 ;
447 [label="entropy = 0.0\nsamples = 6\nvalue = [6, 0]\nclass = No"] ;
429 -> 447 ;
448 [label="entropy = 0.0\nsamples = 1\nvalue = [0, 1]\nclass = Yes"] ;
410 -> 448 ;
449 [label="gender <= 0.5\nentropy = 0.687\nsamples = 120\nvalue = [98, 22]\nclass = No"] ;
371 -> 449 ;
450 [label="entropy = 0.0\nsamples = 1\nvalue = [0, 1]\nclass = Yes"] ;
449 -> 450 ;
451 [label="age <= 17.5\nentropy = 0.672\nsamples = 119\nvalue = [98, 21]\nclass = No"] ;
449 -> 451 ;
452 [label="entropy = 0.0\nsamples = 1\nvalue = [0, 1]\nclass = Yes"] ;
451 -> 452 ;
453 [label="race <= 2.5\nentropy = 0.657\nsamples = 118\nvalue = [98, 20]\nclass = No"] ;
451 -> 453 ;
454 [label="age <= 40.5\nentropy = 0.68\nsamples = 111\nvalue = [91, 20]\nclass = No"] ;
453 -> 454 ;
455 [label="age <= 35.5\nentropy = 0.691\nsamples = 108\nvalue = [88, 20]\nclass = No"] ;
454 -> 455 ;
456 [label="age <= 33.5\nentropy = 0.646\nsamples = 91\nvalue = [76, 15]\nclass = No"] ;
455 -> 456 ;
457 [label="age <= 31.5\nentropy = 0.711\nsamples = 77\nvalue = [62, 15]\nclass = No"] ;
456 -> 457 ;
458 [label="age <= 25.5\nentropy = 0.656\nsamples = 65\nvalue = [54, 11]\nclass = No"] ;
457 -> 458 ;
459 [label="threat_level <= 0.5\nentropy = 0.787\nsamples = 34\nvalue = [26, 8]\nclass = No"] ;
458 -> 459 ;
460 [label="age <= 21.5\nentropy = 0.722\nsamples = 25\nvalue = [20, 5]\nclass = No"] ;
459 -> 460 ;
461 [label="entropy = 0.0\nsamples = 6\nvalue = [6, 0]\nclass = No"] ;
460 -> 461 ;
462 [label="age <= 23.5\nentropy = 0.831\nsamples = 19\nvalue = [14, 5]\nclass = No"] ;
460 -> 462 ;
463 [label="age <= 22.5\nentropy = 0.764\nsamples = 9\nvalue = [7, 2]\nclass = No"] ;
462 -> 463 ;
464 [label="entropy = 0.863\nsamples = 7\nvalue = [5, 2]\nclass = No"] ;
463 -> 464 ;
465 [label="entropy = 0.0\nsamples = 2\nvalue = [2, 0]\nclass = No"] ;
463 -> 465 ;
466 [label="age <= 24.5\nentropy = 0.881\nsamples = 10\nvalue = [7, 3]\nclass = No"] ;
462 -> 466 ;
467 [label="entropy = 0.918\nsamples = 3\nvalue = [2, 1]\nclass = No"] ;
466 -> 467 ;
468 [label="entropy = 0.863\nsamples = 7\nvalue = [5, 2]\nclass = No"] ;
466 -> 468 ;
469 [label="age <= 23.5\nentropy = 0.918\nsamples = 9\nvalue = [6, 3]\nclass = No"] ;
459 -> 469 ;
470 [label="age <= 19.0\nentropy = 0.985\nsamples = 7\nvalue = [4, 3]\nclass = No"] ;
469 -> 470 ;
471 [label="threat_level <= 1.5\nentropy = 0.918\nsamples = 3\nvalue = [2, 1]\nclass = No"] ;
470 -> 471 ;
472 [label="entropy = 1.0\nsamples = 2\nvalue = [1, 1]\nclass = No"] ;
471 -> 472 ;
473 [label="entropy = 0.0\nsamples = 1\nvalue = [1, 0]\nclass = No"] ;
471 -> 473 ;
474 [label="threat_level <= 1.5\nentropy = 1.0\nsamples = 4\nvalue = [2, 2]\nclass = No"] ;
470 -> 474 ;
475 [label="age <= 20.5\nentropy = 0.918\nsamples = 3\nvalue = [2, 1]\nclass = No"] ;
474 -> 475 ;
476 [label="entropy = 0.0\nsamples = 1\nvalue = [0, 1]\nclass = Yes"] ;
475 -> 476 ;
477 [label="entropy = 0.0\nsamples = 2\nvalue = [2, 0]\nclass = No"] ;
475 -> 477 ;
478 [label="entropy = 0.0\nsamples = 1\nvalue = [0, 1]\nclass = Yes"] ;
474 -> 478 ;
479 [label="entropy = 0.0\nsamples = 2\nvalue = [2, 0]\nclass = No"] ;
469 -> 479 ;
480 [label="age <= 26.5\nentropy = 0.459\nsamples = 31\nvalue = [28, 3]\nclass = No"] ;
458 -> 480 ;
481 [label="entropy = 0.0\nsamples = 6\nvalue = [6, 0]\nclass = No"] ;
480 -> 481 ;
482 [label="threat_level <= 0.5\nentropy = 0.529\nsamples = 25\nvalue = [22, 3]\nclass = No"] ;
480 -> 482 ;
483 [label="age <= 28.5\nentropy = 0.629\nsamples = 19\nvalue = [16, 3]\nclass = No"] ;
482 -> 483 ;
484 [label="age <= 27.5\nentropy = 0.764\nsamples = 9\nvalue = [7, 2]\nclass = No"] ;
483 -> 484 ;
485 [label="entropy = 0.722\nsamples = 5\nvalue = [4, 1]\nclass = No"] ;
484 -> 485 ;
486 [label="entropy = 0.811\nsamples = 4\nvalue = [3, 1]\nclass = No"] ;
484 -> 486 ;
487 [label="age <= 30.5\nentropy = 0.469\nsamples = 10\nvalue = [9, 1]\nclass = No"] ;
483 -> 487 ;
488 [label="entropy = 0.0\nsamples = 6\nvalue = [6, 0]\nclass = No"] ;
487 -> 488 ;
489 [label="entropy = 0.811\nsamples = 4\nvalue = [3, 1]\nclass = No"] ;
487 -> 489 ;
490 [label="entropy = 0.0\nsamples = 6\nvalue = [6, 0]\nclass = No"] ;
482 -> 490 ;
491 [label="threat_level <= 0.5\nentropy = 0.918\nsamples = 12\nvalue = [8, 4]\nclass = No"] ;
457 -> 491 ;
492 [label="age <= 32.5\nentropy = 0.991\nsamples = 9\nvalue = [5, 4]\nclass = No"] ;
491 -> 492 ;
493 [label="entropy = 0.918\nsamples = 3\nvalue = [2, 1]\nclass = No"] ;
492 -> 493 ;
494 [label="entropy = 1.0\nsamples = 6\nvalue = [3, 3]\nclass = No"] ;
492 -> 494 ;
495 [label="entropy = 0.0\nsamples = 3\nvalue = [3, 0]\nclass = No"] ;
491 -> 495 ;
496 [label="entropy = 0.0\nsamples = 14\nvalue = [14, 0]\nclass = No"] ;
456 -> 496 ;
497 [label="age <= 36.5\nentropy = 0.874\nsamples = 17\nvalue = [12, 5]\nclass = No"] ;
455 -> 497 ;
498 [label="entropy = 1.0\nsamples = 4\nvalue = [2, 2]\nclass = No"] ;
497 -> 498 ;
499 [label="age <= 37.5\nentropy = 0.779\nsamples = 13\nvalue = [10, 3]\nclass = No"] ;
497 -> 499 ;
500 [label="entropy = 0.0\nsamples = 2\nvalue = [2, 0]\nclass = No"] ;
499 -> 500 ;
501 [label="age <= 39.5\nentropy = 0.845\nsamples = 11\nvalue = [8, 3]\nclass = No"] ;
499 -> 501 ;
502 [label="age <= 38.5\nentropy = 0.971\nsamples = 5\nvalue = [3, 2]\nclass = No"] ;
501 -> 502 ;
503 [label="entropy = 1.0\nsamples = 2\nvalue = [1, 1]\nclass = No"] ;
502 -> 503 ;
504 [label="entropy = 0.918\nsamples = 3\nvalue = [2, 1]\nclass = No"] ;
502 -> 504 ;
505 [label="threat_level <= 0.5\nentropy = 0.65\nsamples = 6\nvalue = [5, 1]\nclass = No"] ;
501 -> 505 ;
506 [label="entropy = 0.722\nsamples = 5\nvalue = [4, 1]\nclass = No"] ;
505 -> 506 ;
507 [label="entropy = 0.0\nsamples = 1\nvalue = [1, 0]\nclass = No"] ;
505 -> 507 ;
508 [label="entropy = 0.0\nsamples = 3\nvalue = [3, 0]\nclass = No"] ;
454 -> 508 ;
509 [label="entropy = 0.0\nsamples = 7\nvalue = [7, 0]\nclass = No"] ;
453 -> 509 ;
510 [label="age <= 24.5\nentropy = 0.229\nsamples = 27\nvalue = [26, 1]\nclass = No"] ;
370 -> 510 ;
511 [label="age <= 22.5\nentropy = 0.503\nsamples = 9\nvalue = [8, 1]\nclass = No"] ;
510 -> 511 ;
512 [label="entropy = 0.0\nsamples = 5\nvalue = [5, 0]\nclass = No"] ;
511 -> 512 ;
513 [label="race <= 1.5\nentropy = 0.811\nsamples = 4\nvalue = [3, 1]\nclass = No"] ;
511 -> 513 ;
514 [label="entropy = 0.0\nsamples = 2\nvalue = [2, 0]\nclass = No"] ;
513 -> 514 ;
515 [label="entropy = 1.0\nsamples = 2\nvalue = [1, 1]\nclass = No"] ;
513 -> 515 ;
516 [label="entropy = 0.0\nsamples = 18\nvalue = [18, 0]\nclass = No"] ;
510 -> 516 ;
517 [label="race <= 0.5\nentropy = 0.964\nsamples = 18\nvalue = [11, 7]\nclass = No"] ;
369 -> 517 ;
518 [label="entropy = 0.0\nsamples = 1\nvalue = [0, 1]\nclass = Yes"] ;
517 -> 518 ;
519 [label="race <= 2.5\nentropy = 0.937\nsamples = 17\nvalue = [11, 6]\nclass = No"] ;
517 -> 519 ;
520 [label="threat_level <= 0.5\nentropy = 0.954\nsamples = 16\nvalue = [10, 6]\nclass = No"] ;
519 -> 520 ;
521 [label="flee <= 2.5\nentropy = 0.918\nsamples = 12\nvalue = [8, 4]\nclass = No"] ;
520 -> 521 ;
522 [label="race <= 1.5\nentropy = 0.946\nsamples = 11\nvalue = [7, 4]\nclass = No"] ;
521 -> 522 ;
523 [label="age <= 42.5\nentropy = 1.0\nsamples = 6\nvalue = [3, 3]\nclass = No"] ;
522 -> 523 ;
524 [label="entropy = 1.0\nsamples = 2\nvalue = [1, 1]\nclass = No"] ;
523 -> 524 ;
525 [label="entropy = 1.0\nsamples = 4\nvalue = [2, 2]\nclass = No"] ;
523 -> 525 ;
526 [label="age <= 42.5\nentropy = 0.722\nsamples = 5\nvalue = [4, 1]\nclass = No"] ;
522 -> 526 ;
527 [label="entropy = 0.0\nsamples = 2\nvalue = [2, 0]\nclass = No"] ;
526 -> 527 ;
528 [label="entropy = 0.918\nsamples = 3\nvalue = [2, 1]\nclass = No"] ;
526 -> 528 ;
529 [label="entropy = 0.0\nsamples = 1\nvalue = [1, 0]\nclass = No"] ;
521 -> 529 ;
530 [label="flee <= 2.5\nentropy = 1.0\nsamples = 4\nvalue = [2, 2]\nclass = No"] ;
520 -> 530 ;
531 [label="race <= 1.5\nentropy = 0.918\nsamples = 3\nvalue = [2, 1]\nclass = No"] ;
530 -> 531 ;
532 [label="entropy = 0.0\nsamples = 1\nvalue = [1, 0]\nclass = No"] ;
531 -> 532 ;
533 [label="age <= 42.5\nentropy = 1.0\nsamples = 2\nvalue = [1, 1]\nclass = No"] ;
531 -> 533 ;
534 [label="entropy = 0.0\nsamples = 1\nvalue = [1, 0]\nclass = No"] ;
533 -> 534 ;
535 [label="entropy = 0.0\nsamples = 1\nvalue = [0, 1]\nclass = Yes"] ;
533 -> 535 ;
536 [label="entropy = 0.0\nsamples = 1\nvalue = [0, 1]\nclass = Yes"] ;
530 -> 536 ;
537 [label="entropy = 0.0\nsamples = 1\nvalue = [1, 0]\nclass = No"] ;
519 -> 537 ;
538 [label="age <= 46.5\nentropy = 0.323\nsamples = 51\nvalue = [48, 3]\nclass = No"] ;
368 -> 538 ;
539 [label="entropy = 0.0\nsamples = 18\nvalue = [18, 0]\nclass = No"] ;
538 -> 539 ;
540 [label="age <= 47.5\nentropy = 0.439\nsamples = 33\nvalue = [30, 3]\nclass = No"] ;
538 -> 540 ;
541 [label="gender <= 0.5\nentropy = 0.971\nsamples = 5\nvalue = [3, 2]\nclass = No"] ;
540 -> 541 ;
542 [label="entropy = 0.0\nsamples = 1\nvalue = [0, 1]\nclass = Yes"] ;
541 -> 542 ;
543 [label="race <= 1.5\nentropy = 0.811\nsamples = 4\nvalue = [3, 1]\nclass = No"] ;
541 -> 543 ;
544 [label="entropy = 0.0\nsamples = 2\nvalue = [2, 0]\nclass = No"] ;
543 -> 544 ;
545 [label="threat_level <= 0.5\nentropy = 1.0\nsamples = 2\nvalue = [1, 1]\nclass = No"] ;
543 -> 545 ;
546 [label="entropy = 0.0\nsamples = 1\nvalue = [1, 0]\nclass = No"] ;
545 -> 546 ;
547 [label="entropy = 0.0\nsamples = 1\nvalue = [0, 1]\nclass = Yes"] ;
545 -> 547 ;
548 [label="age <= 49.5\nentropy = 0.222\nsamples = 28\nvalue = [27, 1]\nclass = No"] ;
540 -> 548 ;
549 [label="entropy = 0.0\nsamples = 15\nvalue = [15, 0]\nclass = No"] ;
548 -> 549 ;
550 [label="age <= 50.5\nentropy = 0.391\nsamples = 13\nvalue = [12, 1]\nclass = No"] ;
548 -> 550 ;
551 [label="race <= 1.5\nentropy = 0.544\nsamples = 8\nvalue = [7, 1]\nclass = No"] ;
550 -> 551 ;
552 [label="threat_level <= 0.5\nentropy = 0.722\nsamples = 5\nvalue = [4, 1]\nclass = No"] ;
551 -> 552 ;
553 [label="gender <= 0.5\nentropy = 0.811\nsamples = 4\nvalue = [3, 1]\nclass = No"] ;
552 -> 553 ;
554 [label="entropy = 0.0\nsamples = 1\nvalue = [1, 0]\nclass = No"] ;
553 -> 554 ;
555 [label="entropy = 0.918\nsamples = 3\nvalue = [2, 1]\nclass = No"] ;
553 -> 555 ;
556 [label="entropy = 0.0\nsamples = 1\nvalue = [1, 0]\nclass = No"] ;
552 -> 556 ;
557 [label="entropy = 0.0\nsamples = 3\nvalue = [3, 0]\nclass = No"] ;
551 -> 557 ;
558 [label="entropy = 0.0\nsamples = 5\nvalue = [5, 0]\nclass = No"] ;
550 -> 558 ;
559 [label="age <= 24.5\nentropy = 0.771\nsamples = 62\nvalue = [48, 14]\nclass = No"] ;
367 -> 559 ;
560 [label="entropy = 0.0\nsamples = 11\nvalue = [11, 0]\nclass = No"] ;
559 -> 560 ;
561 [label="age <= 38.5\nentropy = 0.848\nsamples = 51\nvalue = [37.0, 14.0]\nclass = No"] ;
559 -> 561 ;
562 [label="flee <= 2.5\nentropy = 0.759\nsamples = 41\nvalue = [32, 9]\nclass = No"] ;
561 -> 562 ;
563 [label="manner_of_death <= 0.5\nentropy = 0.811\nsamples = 36\nvalue = [27, 9]\nclass = No"] ;
562 -> 563 ;
564 [label="age <= 26.5\nentropy = 0.834\nsamples = 34\nvalue = [25, 9]\nclass = No"] ;
563 -> 564 ;
565 [label="threat_level <= 0.5\nentropy = 0.954\nsamples = 8\nvalue = [5, 3]\nclass = No"] ;
564 -> 565 ;
566 [label="race <= 1.5\nentropy = 0.985\nsamples = 7\nvalue = [4, 3]\nclass = No"] ;
565 -> 566 ;
567 [label="age <= 25.5\nentropy = 0.918\nsamples = 3\nvalue = [2, 1]\nclass = No"] ;
566 -> 567 ;
568 [label="entropy = 0.0\nsamples = 1\nvalue = [1, 0]\nclass = No"] ;
567 -> 568 ;
569 [label="entropy = 1.0\nsamples = 2\nvalue = [1, 1]\nclass = No"] ;
567 -> 569 ;
570 [label="entropy = 1.0\nsamples = 4\nvalue = [2, 2]\nclass = No"] ;
566 -> 570 ;
571 [label="entropy = 0.0\nsamples = 1\nvalue = [1, 0]\nclass = No"] ;
565 -> 571 ;
572 [label="age <= 28.5\nentropy = 0.779\nsamples = 26\nvalue = [20, 6]\nclass = No"] ;
564 -> 572 ;
573 [label="entropy = 0.0\nsamples = 5\nvalue = [5, 0]\nclass = No"] ;
572 -> 573 ;
574 [label="age <= 29.5\nentropy = 0.863\nsamples = 21\nvalue = [15, 6]\nclass = No"] ;
572 -> 574 ;
575 [label="entropy = 0.0\nsamples = 1\nvalue = [0, 1]\nclass = Yes"] ;
574 -> 575 ;
576 [label="race <= 0.5\nentropy = 0.811\nsamples = 20\nvalue = [15, 5]\nclass = No"] ;
574 -> 576 ;
577 [label="entropy = 0.0\nsamples = 1\nvalue = [0, 1]\nclass = Yes"] ;
576 -> 577 ;
578 [label="age <= 35.5\nentropy = 0.742\nsamples = 19\nvalue = [15, 4]\nclass = No"] ;
576 -> 578 ;
579 [label="age <= 33.5\nentropy = 0.837\nsamples = 15\nvalue = [11, 4]\nclass = No"] ;
578 -> 579 ;
580 [label="age <= 30.5\nentropy = 0.75\nsamples = 14\nvalue = [11, 3]\nclass = No"] ;
579 -> 580 ;
581 [label="entropy = 0.0\nsamples = 2\nvalue = [2, 0]\nclass = No"] ;
580 -> 581 ;
582 [label="threat_level <= 1.5\nentropy = 0.811\nsamples = 12\nvalue = [9, 3]\nclass = No"] ;
580 -> 582 ;
583 [label="threat_level <= 0.5\nentropy = 0.684\nsamples = 11\nvalue = [9, 2]\nclass = No"] ;
582 -> 583 ;
584 [label="race <= 2.5\nentropy = 0.811\nsamples = 8\nvalue = [6, 2]\nclass = No"] ;
583 -> 584 ;
585 [label="age <= 32.5\nentropy = 0.592\nsamples = 7\nvalue = [6, 1]\nclass = No"] ;
584 -> 585 ;
586 [label="entropy = 0.0\nsamples = 4\nvalue = [4, 0]\nclass = No"] ;
585 -> 586 ;
587 [label="race <= 1.5\nentropy = 0.918\nsamples = 3\nvalue = [2, 1]\nclass = No"] ;
585 -> 587 ;
588 [label="entropy = 1.0\nsamples = 2\nvalue = [1, 1]\nclass = No"] ;
587 -> 588 ;
589 [label="entropy = 0.0\nsamples = 1\nvalue = [1, 0]\nclass = No"] ;
587 -> 589 ;
590 [label="entropy = 0.0\nsamples = 1\nvalue = [0, 1]\nclass = Yes"] ;
584 -> 590 ;
591 [label="entropy = 0.0\nsamples = 3\nvalue = [3, 0]\nclass = No"] ;
583 -> 591 ;
592 [label="entropy = 0.0\nsamples = 1\nvalue = [0, 1]\nclass = Yes"] ;
582 -> 592 ;
593 [label="entropy = 0.0\nsamples = 1\nvalue = [0, 1]\nclass = Yes"] ;
579 -> 593 ;
594 [label="entropy = 0.0\nsamples = 4\nvalue = [4, 0]\nclass = No"] ;
578 -> 594 ;
595 [label="entropy = 0.0\nsamples = 2\nvalue = [2, 0]\nclass = No"] ;
563 -> 595 ;
596 [label="entropy = 0.0\nsamples = 5\nvalue = [5, 0]\nclass = No"] ;
562 -> 596 ;
597 [label="age <= 42.0\nentropy = 1.0\nsamples = 10\nvalue = [5, 5]\nclass = No"] ;
561 -> 597 ;
598 [label="entropy = 0.0\nsamples = 2\nvalue = [0, 2]\nclass = Yes"] ;
597 -> 598 ;
599 [label="age <= 43.5\nentropy = 0.954\nsamples = 8\nvalue = [5, 3]\nclass = No"] ;
597 -> 599 ;
600 [label="entropy = 0.0\nsamples = 3\nvalue = [3, 0]\nclass = No"] ;
599 -> 600 ;
601 [label="age <= 49.0\nentropy = 0.971\nsamples = 5\nvalue = [2, 3]\nclass = Yes"] ;
599 -> 601 ;
602 [label="entropy = 0.0\nsamples = 3\nvalue = [0, 3]\nclass = Yes"] ;
601 -> 602 ;
603 [label="entropy = 0.0\nsamples = 2\nvalue = [2, 0]\nclass = No"] ;
601 -> 603 ;
604 [label="race <= 2.0\nentropy = 1.0\nsamples = 6\nvalue = [3, 3]\nclass = No"] ;
366 -> 604 ;
605 [label="race <= 0.5\nentropy = 0.971\nsamples = 5\nvalue = [2, 3]\nclass = Yes"] ;
604 -> 605 ;
606 [label="entropy = 1.0\nsamples = 2\nvalue = [1, 1]\nclass = No"] ;
605 -> 606 ;
607 [label="entropy = 0.918\nsamples = 3\nvalue = [1, 2]\nclass = Yes"] ;
605 -> 607 ;
608 [label="entropy = 0.0\nsamples = 1\nvalue = [1, 0]\nclass = No"] ;
604 -> 608 ;
609 [label="entropy = 0.0\nsamples = 20\nvalue = [20, 0]\nclass = No"] ;
365 -> 609 ;
610 [label="race <= 1.5\nentropy = 0.991\nsamples = 9\nvalue = [5, 4]\nclass = No"] ;
364 -> 610 ;
611 [label="age <= 75.5\nentropy = 0.863\nsamples = 7\nvalue = [5, 2]\nclass = No"] ;
610 -> 611 ;
612 [label="age <= 67.5\nentropy = 0.65\nsamples = 6\nvalue = [5, 1]\nclass = No"] ;
611 -> 612 ;
613 [label="age <= 65.5\nentropy = 1.0\nsamples = 2\nvalue = [1, 1]\nclass = No"] ;
612 -> 613 ;
614 [label="entropy = 0.0\nsamples = 1\nvalue = [1, 0]\nclass = No"] ;
613 -> 614 ;
615 [label="entropy = 0.0\nsamples = 1\nvalue = [0, 1]\nclass = Yes"] ;
613 -> 615 ;
616 [label="entropy = 0.0\nsamples = 4\nvalue = [4, 0]\nclass = No"] ;
612 -> 616 ;
617 [label="entropy = 0.0\nsamples = 1\nvalue = [0, 1]\nclass = Yes"] ;
611 -> 617 ;
618 [label="entropy = 0.0\nsamples = 2\nvalue = [0, 2]\nclass = Yes"] ;
610 -> 618 ;
619 [label="flee <= 2.5\nentropy = 0.876\nsamples = 406\nvalue = [286.0, 120.0]\nclass = No"] ;
347 -> 619 ;
620 [label="threat_level <= 0.5\nentropy = 0.89\nsamples = 391\nvalue = [271, 120]\nclass = No"] ;
619 -> 620 ;
621 [label="body_camera <= 0.5\nentropy = 0.78\nsamples = 160\nvalue = [123, 37]\nclass = No"] ;
620 -> 621 ;
622 [label="race <= 1.5\nentropy = 0.701\nsamples = 137\nvalue = [111, 26]\nclass = No"] ;
621 -> 622 ;
623 [label="age <= 20.5\nentropy = 0.816\nsamples = 79\nvalue = [59, 20]\nclass = No"] ;
622 -> 623 ;
624 [label="entropy = 0.0\nsamples = 6\nvalue = [6, 0]\nclass = No"] ;
623 -> 624 ;
625 [label="armed <= 76.0\nentropy = 0.847\nsamples = 73\nvalue = [53, 20]\nclass = No"] ;
623 -> 625 ;
626 [label="age <= 21.5\nentropy = 0.874\nsamples = 68\nvalue = [48, 20]\nclass = No"] ;
625 -> 626 ;
627 [label="entropy = 0.0\nsamples = 1\nvalue = [0, 1]\nclass = Yes"] ;
626 -> 627 ;
628 [label="age <= 28.5\nentropy = 0.86\nsamples = 67\nvalue = [48, 19]\nclass = No"] ;
626 -> 628 ;
629 [label="armed <= 50.0\nentropy = 0.567\nsamples = 15\nvalue = [13, 2]\nclass = No"] ;
628 -> 629 ;
630 [label="age <= 26.0\nentropy = 0.863\nsamples = 7\nvalue = [5, 2]\nclass = No"] ;
629 -> 630 ;
631 [label="entropy = 0.971\nsamples = 5\nvalue = [3, 2]\nclass = No"] ;
630 -> 631 ;
632 [label="entropy = 0.0\nsamples = 2\nvalue = [2, 0]\nclass = No"] ;
630 -> 632 ;
633 [label="entropy = 0.0\nsamples = 8\nvalue = [8, 0]\nclass = No"] ;
629 -> 633 ;
634 [label="armed <= 42.0\nentropy = 0.912\nsamples = 52\nvalue = [35, 17]\nclass = No"] ;
628 -> 634 ;
635 [label="age <= 32.5\nentropy = 0.736\nsamples = 29\nvalue = [23, 6]\nclass = No"] ;
634 -> 635 ;
636 [label="race <= 0.5\nentropy = 0.985\nsamples = 7\nvalue = [4, 3]\nclass = No"] ;
635 -> 636 ;
637 [label="entropy = 0.0\nsamples = 2\nvalue = [2, 0]\nclass = No"] ;
636 -> 637 ;
638 [label="gender <= 0.5\nentropy = 0.971\nsamples = 5\nvalue = [2, 3]\nclass = Yes"] ;
636 -> 638 ;
639 [label="entropy = 0.0\nsamples = 1\nvalue = [1, 0]\nclass = No"] ;
638 -> 639 ;
640 [label="age <= 29.5\nentropy = 0.811\nsamples = 4\nvalue = [1, 3]\nclass = Yes"] ;
638 -> 640 ;
641 [label="entropy = 1.0\nsamples = 2\nvalue = [1, 1]\nclass = No"] ;
640 -> 641 ;
642 [label="entropy = 0.0\nsamples = 2\nvalue = [0, 2]\nclass = Yes"] ;
640 -> 642 ;
643 [label="race <= 0.5\nentropy = 0.575\nsamples = 22\nvalue = [19, 3]\nclass = No"] ;
635 -> 643 ;
644 [label="age <= 55.5\nentropy = 0.971\nsamples = 5\nvalue = [3, 2]\nclass = No"] ;
643 -> 644 ;
645 [label="entropy = 0.0\nsamples = 2\nvalue = [0, 2]\nclass = Yes"] ;
644 -> 645 ;
646 [label="entropy = 0.0\nsamples = 3\nvalue = [3, 0]\nclass = No"] ;
644 -> 646 ;
647 [label="manner_of_death <= 0.5\nentropy = 0.323\nsamples = 17\nvalue = [16, 1]\nclass = No"] ;
643 -> 647 ;
648 [label="entropy = 0.0\nsamples = 15\nvalue = [15, 0]\nclass = No"] ;
647 -> 648 ;
649 [label="age <= 42.5\nentropy = 1.0\nsamples = 2\nvalue = [1, 1]\nclass = No"] ;
647 -> 649 ;
650 [label="entropy = 0.0\nsamples = 1\nvalue = [0, 1]\nclass = Yes"] ;
649 -> 650 ;
651 [label="entropy = 0.0\nsamples = 1\nvalue = [1, 0]\nclass = No"] ;
649 -> 651 ;
652 [label="age <= 64.0\nentropy = 0.999\nsamples = 23\nvalue = [12, 11]\nclass = No"] ;
634 -> 652 ;
653 [label="age <= 47.5\nentropy = 0.998\nsamples = 21\nvalue = [10, 11]\nclass = Yes"] ;
652 -> 653 ;
654 [label="age <= 35.5\nentropy = 0.998\nsamples = 19\nvalue = [10, 9]\nclass = No"] ;
653 -> 654 ;
655 [label="armed <= 73.5\nentropy = 0.918\nsamples = 9\nvalue = [3, 6]\nclass = Yes"] ;
654 -> 655 ;
656 [label="entropy = 0.0\nsamples = 2\nvalue = [0, 2]\nclass = Yes"] ;
655 -> 656 ;
657 [label="age <= 34.5\nentropy = 0.985\nsamples = 7\nvalue = [3, 4]\nclass = Yes"] ;
655 -> 657 ;
658 [label="age <= 33.5\nentropy = 1.0\nsamples = 6\nvalue = [3, 3]\nclass = No"] ;
657 -> 658 ;
659 [label="age <= 32.5\nentropy = 0.971\nsamples = 5\nvalue = [2, 3]\nclass = Yes"] ;
658 -> 659 ;
660 [label="age <= 31.5\nentropy = 1.0\nsamples = 4\nvalue = [2, 2]\nclass = No"] ;
659 -> 660 ;
661 [label="age <= 30.0\nentropy = 0.918\nsamples = 3\nvalue = [1, 2]\nclass = Yes"] ;
660 -> 661 ;
662 [label="entropy = 1.0\nsamples = 2\nvalue = [1, 1]\nclass = No"] ;
661 -> 662 ;
663 [label="entropy = 0.0\nsamples = 1\nvalue = [0, 1]\nclass = Yes"] ;
661 -> 663 ;
664 [label="entropy = 0.0\nsamples = 1\nvalue = [1, 0]\nclass = No"] ;
660 -> 664 ;
665 [label="entropy = 0.0\nsamples = 1\nvalue = [0, 1]\nclass = Yes"] ;
659 -> 665 ;
666 [label="entropy = 0.0\nsamples = 1\nvalue = [1, 0]\nclass = No"] ;
658 -> 666 ;
667 [label="entropy = 0.0\nsamples = 1\nvalue = [0, 1]\nclass = Yes"] ;
657 -> 667 ;
668 [label="age <= 38.0\nentropy = 0.881\nsamples = 10\nvalue = [7, 3]\nclass = No"] ;
654 -> 668 ;
669 [label="entropy = 0.0\nsamples = 4\nvalue = [4, 0]\nclass = No"] ;
668 -> 669 ;
670 [label="armed <= 55.0\nentropy = 1.0\nsamples = 6\nvalue = [3, 3]\nclass = No"] ;
668 -> 670 ;
671 [label="entropy = 0.0\nsamples = 1\nvalue = [1, 0]\nclass = No"] ;
670 -> 671 ;
672 [label="age <= 46.0\nentropy = 0.971\nsamples = 5\nvalue = [2, 3]\nclass = Yes"] ;
670 -> 672 ;
673 [label="age <= 41.5\nentropy = 0.811\nsamples = 4\nvalue = [1, 3]\nclass = Yes"] ;
672 -> 673 ;
674 [label="entropy = 1.0\nsamples = 2\nvalue = [1, 1]\nclass = No"] ;
673 -> 674 ;
675 [label="entropy = 0.0\nsamples = 2\nvalue = [0, 2]\nclass = Yes"] ;
673 -> 675 ;
676 [label="entropy = 0.0\nsamples = 1\nvalue = [1, 0]\nclass = No"] ;
672 -> 676 ;
677 [label="entropy = 0.0\nsamples = 2\nvalue = [0, 2]\nclass = Yes"] ;
653 -> 677 ;
678 [label="entropy = 0.0\nsamples = 2\nvalue = [2, 0]\nclass = No"] ;
652 -> 678 ;
679 [label="entropy = 0.0\nsamples = 5\nvalue = [5, 0]\nclass = No"] ;
625 -> 679 ;
680 [label="age <= 20.5\nentropy = 0.48\nsamples = 58\nvalue = [52, 6]\nclass = No"] ;
622 -> 680 ;
681 [label="entropy = 0.0\nsamples = 2\nvalue = [0, 2]\nclass = Yes"] ;
680 -> 681 ;
682 [label="age <= 56.5\nentropy = 0.371\nsamples = 56\nvalue = [52, 4]\nclass = No"] ;
680 -> 682 ;
683 [label="armed <= 74.5\nentropy = 0.31\nsamples = 54\nvalue = [51, 3]\nclass = No"] ;
682 -> 683 ;
684 [label="age <= 37.5\nentropy = 0.159\nsamples = 43\nvalue = [42, 1]\nclass = No"] ;
683 -> 684 ;
685 [label="entropy = 0.0\nsamples = 23\nvalue = [23, 0]\nclass = No"] ;
684 -> 685 ;
686 [label="age <= 38.5\nentropy = 0.286\nsamples = 20\nvalue = [19, 1]\nclass = No"] ;
684 -> 686 ;
687 [label="armed <= 57.5\nentropy = 0.918\nsamples = 3\nvalue = [2, 1]\nclass = No"] ;
686 -> 687 ;
688 [label="entropy = 0.0\nsamples = 1\nvalue = [0, 1]\nclass = Yes"] ;
687 -> 688 ;
689 [label="entropy = 0.0\nsamples = 2\nvalue = [2, 0]\nclass = No"] ;
687 -> 689 ;
690 [label="entropy = 0.0\nsamples = 17\nvalue = [17, 0]\nclass = No"] ;
686 -> 690 ;
691 [label="age <= 28.0\nentropy = 0.684\nsamples = 11\nvalue = [9, 2]\nclass = No"] ;
683 -> 691 ;
692 [label="age <= 21.5\nentropy = 1.0\nsamples = 4\nvalue = [2, 2]\nclass = No"] ;
691 -> 692 ;
693 [label="entropy = 0.0\nsamples = 1\nvalue = [0, 1]\nclass = Yes"] ;
692 -> 693 ;
694 [label="age <= 25.5\nentropy = 0.918\nsamples = 3\nvalue = [2, 1]\nclass = No"] ;
692 -> 694 ;
695 [label="entropy = 0.0\nsamples = 2\nvalue = [2, 0]\nclass = No"] ;
694 -> 695 ;
696 [label="entropy = 0.0\nsamples = 1\nvalue = [0, 1]\nclass = Yes"] ;
694 -> 696 ;
697 [label="entropy = 0.0\nsamples = 7\nvalue = [7, 0]\nclass = No"] ;
691 -> 697 ;
698 [label="armed <= 75.5\nentropy = 1.0\nsamples = 2\nvalue = [1, 1]\nclass = No"] ;
682 -> 698 ;
699 [label="entropy = 0.0\nsamples = 1\nvalue = [0, 1]\nclass = Yes"] ;
698 -> 699 ;
700 [label="entropy = 0.0\nsamples = 1\nvalue = [1, 0]\nclass = No"] ;
698 -> 700 ;
701 [label="age <= 61.0\nentropy = 0.999\nsamples = 23\nvalue = [12, 11]\nclass = No"] ;
621 -> 701 ;
702 [label="age <= 43.5\nentropy = 0.985\nsamples = 21\nvalue = [12, 9]\nclass = No"] ;
701 -> 702 ;
703 [label="armed <= 74.5\nentropy = 1.0\nsamples = 18\nvalue = [9, 9]\nclass = No"] ;
702 -> 703 ;
704 [label="age <= 17.0\nentropy = 0.918\nsamples = 12\nvalue = [8, 4]\nclass = No"] ;
703 -> 704 ;
705 [label="entropy = 0.0\nsamples = 1\nvalue = [0, 1]\nclass = Yes"] ;
704 -> 705 ;
706 [label="race <= 0.5\nentropy = 0.845\nsamples = 11\nvalue = [8, 3]\nclass = No"] ;
704 -> 706 ;
707 [label="entropy = 0.0\nsamples = 1\nvalue = [0, 1]\nclass = Yes"] ;
706 -> 707 ;
708 [label="age <= 29.5\nentropy = 0.722\nsamples = 10\nvalue = [8, 2]\nclass = No"] ;
706 -> 708 ;
709 [label="entropy = 0.0\nsamples = 3\nvalue = [3, 0]\nclass = No"] ;
708 -> 709 ;
710 [label="age <= 31.5\nentropy = 0.863\nsamples = 7\nvalue = [5, 2]\nclass = No"] ;
708 -> 710 ;
711 [label="entropy = 0.0\nsamples = 1\nvalue = [0, 1]\nclass = Yes"] ;
710 -> 711 ;
712 [label="race <= 1.5\nentropy = 0.65\nsamples = 6\nvalue = [5, 1]\nclass = No"] ;
710 -> 712 ;
713 [label="entropy = 0.0\nsamples = 4\nvalue = [4, 0]\nclass = No"] ;
712 -> 713 ;
714 [label="manner_of_death <= 0.5\nentropy = 1.0\nsamples = 2\nvalue = [1, 1]\nclass = No"] ;
712 -> 714 ;
715 [label="entropy = 0.0\nsamples = 1\nvalue = [1, 0]\nclass = No"] ;
714 -> 715 ;
716 [label="entropy = 0.0\nsamples = 1\nvalue = [0, 1]\nclass = Yes"] ;
714 -> 716 ;
717 [label="age <= 33.5\nentropy = 0.65\nsamples = 6\nvalue = [1, 5]\nclass = Yes"] ;
703 -> 717 ;
718 [label="entropy = 0.0\nsamples = 1\nvalue = [1, 0]\nclass = No"] ;
717 -> 718 ;
719 [label="entropy = 0.0\nsamples = 5\nvalue = [0, 5]\nclass = Yes"] ;
717 -> 719 ;
720 [label="entropy = 0.0\nsamples = 3\nvalue = [3, 0]\nclass = No"] ;
702 -> 720 ;
721 [label="entropy = 0.0\nsamples = 2\nvalue = [0, 2]\nclass = Yes"] ;
701 -> 721 ;
722 [label="armed <= 73.5\nentropy = 0.942\nsamples = 231\nvalue = [148, 83]\nclass = No"] ;
620 -> 722 ;
723 [label="age <= 53.5\nentropy = 0.987\nsamples = 155\nvalue = [88, 67]\nclass = No"] ;
722 -> 723 ;
724 [label="threat_level <= 1.5\nentropy = 0.995\nsamples = 139\nvalue = [75, 64]\nclass = No"] ;
723 -> 724 ;
725 [label="age <= 16.5\nentropy = 0.997\nsamples = 137\nvalue = [73, 64]\nclass = No"] ;
724 -> 725 ;
726 [label="entropy = 0.0\nsamples = 2\nvalue = [2, 0]\nclass = No"] ;
725 -> 726 ;
727 [label="age <= 33.5\nentropy = 0.998\nsamples = 135\nvalue = [71, 64]\nclass = No"] ;
725 -> 727 ;
728 [label="age <= 32.5\nentropy = 0.994\nsamples = 68\nvalue = [31, 37]\nclass = Yes"] ;
727 -> 728 ;
729 [label="race <= 0.5\nentropy = 0.997\nsamples = 66\nvalue = [31, 35]\nclass = Yes"] ;
728 -> 729 ;
730 [label="age <= 25.0\nentropy = 0.722\nsamples = 5\nvalue = [1, 4]\nclass = Yes"] ;
729 -> 730 ;
731 [label="entropy = 0.0\nsamples = 3\nvalue = [0, 3]\nclass = Yes"] ;
730 -> 731 ;
732 [label="body_camera <= 0.5\nentropy = 1.0\nsamples = 2\nvalue = [1, 1]\nclass = No"] ;
730 -> 732 ;
733 [label="entropy = 0.0\nsamples = 1\nvalue = [0, 1]\nclass = Yes"] ;
732 -> 733 ;
734 [label="entropy = 0.0\nsamples = 1\nvalue = [1, 0]\nclass = No"] ;
732 -> 734 ;
735 [label="age <= 22.5\nentropy = 1.0\nsamples = 61\nvalue = [30, 31]\nclass = Yes"] ;
729 -> 735 ;
736 [label="age <= 17.5\nentropy = 0.811\nsamples = 12\nvalue = [9, 3]\nclass = No"] ;
735 -> 736 ;
737 [label="entropy = 0.0\nsamples = 1\nvalue = [0, 1]\nclass = Yes"] ;
736 -> 737 ;
738 [label="armed <= 41.5\nentropy = 0.684\nsamples = 11\nvalue = [9, 2]\nclass = No"] ;
736 -> 738 ;
739 [label="age <= 19.5\nentropy = 0.811\nsamples = 8\nvalue = [6, 2]\nclass = No"] ;
738 -> 739 ;
740 [label="entropy = 0.0\nsamples = 1\nvalue = [1, 0]\nclass = No"] ;
739 -> 740 ;
741 [label="body_camera <= 0.5\nentropy = 0.863\nsamples = 7\nvalue = [5, 2]\nclass = No"] ;
739 -> 741 ;
742 [label="age <= 20.5\nentropy = 0.918\nsamples = 6\nvalue = [4, 2]\nclass = No"] ;
741 -> 742 ;
743 [label="entropy = 0.0\nsamples = 1\nvalue = [0, 1]\nclass = Yes"] ;
742 -> 743 ;
744 [label="race <= 1.5\nentropy = 0.722\nsamples = 5\nvalue = [4, 1]\nclass = No"] ;
742 -> 744 ;
745 [label="entropy = 0.0\nsamples = 1\nvalue = [1, 0]\nclass = No"] ;
744 -> 745 ;
746 [label="age <= 21.5\nentropy = 0.811\nsamples = 4\nvalue = [3, 1]\nclass = No"] ;
744 -> 746 ;
747 [label="entropy = 0.0\nsamples = 1\nvalue = [1, 0]\nclass = No"] ;
746 -> 747 ;
748 [label="entropy = 0.918\nsamples = 3\nvalue = [2, 1]\nclass = No"] ;
746 -> 748 ;
749 [label="entropy = 0.0\nsamples = 1\nvalue = [1, 0]\nclass = No"] ;
741 -> 749 ;
750 [label="entropy = 0.0\nsamples = 3\nvalue = [3, 0]\nclass = No"] ;
738 -> 750 ;
751 [label="gender <= 0.5\nentropy = 0.985\nsamples = 49\nvalue = [21, 28]\nclass = Yes"] ;
735 -> 751 ;
752 [label="age <= 27.5\nentropy = 0.918\nsamples = 6\nvalue = [4, 2]\nclass = No"] ;
751 -> 752 ;
753 [label="entropy = 0.0\nsamples = 2\nvalue = [2, 0]\nclass = No"] ;
752 -> 753 ;
754 [label="manner_of_death <= 0.5\nentropy = 1.0\nsamples = 4\nvalue = [2, 2]\nclass = No"] ;
752 -> 754 ;
755 [label="age <= 29.0\nentropy = 0.918\nsamples = 3\nvalue = [1, 2]\nclass = Yes"] ;
754 -> 755 ;
756 [label="entropy = 1.0\nsamples = 2\nvalue = [1, 1]\nclass = No"] ;
755 -> 756 ;
757 [label="entropy = 0.0\nsamples = 1\nvalue = [0, 1]\nclass = Yes"] ;
755 -> 757 ;
758 [label="entropy = 0.0\nsamples = 1\nvalue = [1, 0]\nclass = No"] ;
754 -> 758 ;
759 [label="age <= 25.5\nentropy = 0.968\nsamples = 43\nvalue = [17, 26]\nclass = Yes"] ;
751 -> 759 ;
760 [label="age <= 24.5\nentropy = 0.896\nsamples = 16\nvalue = [5, 11]\nclass = Yes"] ;
759 -> 760 ;
761 [label="body_camera <= 0.5\nentropy = 0.98\nsamples = 12\nvalue = [5, 7]\nclass = Yes"] ;
760 -> 761 ;
762 [label="armed <= 42.0\nentropy = 0.991\nsamples = 9\nvalue = [5, 4]\nclass = No"] ;
761 -> 762 ;
763 [label="race <= 2.5\nentropy = 0.985\nsamples = 7\nvalue = [3, 4]\nclass = Yes"] ;
762 -> 763 ;
764 [label="manner_of_death <= 0.5\nentropy = 0.918\nsamples = 6\nvalue = [2, 4]\nclass = Yes"] ;
763 -> 764 ;
765 [label="age <= 23.5\nentropy = 0.722\nsamples = 5\nvalue = [1, 4]\nclass = Yes"] ;
764 -> 765 ;
766 [label="race <= 1.5\nentropy = 0.918\nsamples = 3\nvalue = [1, 2]\nclass = Yes"] ;
765 -> 766 ;
767 [label="entropy = 0.0\nsamples = 1\nvalue = [0, 1]\nclass = Yes"] ;
766 -> 767 ;
768 [label="entropy = 1.0\nsamples = 2\nvalue = [1, 1]\nclass = No"] ;
766 -> 768 ;
769 [label="entropy = 0.0\nsamples = 2\nvalue = [0, 2]\nclass = Yes"] ;
765 -> 769 ;
770 [label="entropy = 0.0\nsamples = 1\nvalue = [1, 0]\nclass = No"] ;
764 -> 770 ;
771 [label="entropy = 0.0\nsamples = 1\nvalue = [1, 0]\nclass = No"] ;
763 -> 771 ;
772 [label="entropy = 0.0\nsamples = 2\nvalue = [2, 0]\nclass = No"] ;
762 -> 772 ;
773 [label="entropy = 0.0\nsamples = 3\nvalue = [0, 3]\nclass = Yes"] ;
761 -> 773 ;
774 [label="entropy = 0.0\nsamples = 4\nvalue = [0, 4]\nclass = Yes"] ;
760 -> 774 ;
775 [label="age <= 27.5\nentropy = 0.991\nsamples = 27\nvalue = [12, 15]\nclass = Yes"] ;
759 -> 775 ;
776 [label="manner_of_death <= 0.5\nentropy = 0.722\nsamples = 5\nvalue = [4, 1]\nclass = No"] ;
775 -> 776 ;
777 [label="age <= 26.5\nentropy = 0.811\nsamples = 4\nvalue = [3, 1]\nclass = No"] ;
776 -> 777 ;
778 [label="entropy = 0.0\nsamples = 1\nvalue = [1, 0]\nclass = No"] ;
777 -> 778 ;
779 [label="race <= 1.5\nentropy = 0.918\nsamples = 3\nvalue = [2, 1]\nclass = No"] ;
777 -> 779 ;
780 [label="entropy = 1.0\nsamples = 2\nvalue = [1, 1]\nclass = No"] ;
779 -> 780 ;
781 [label="entropy = 0.0\nsamples = 1\nvalue = [1, 0]\nclass = No"] ;
779 -> 781 ;
782 [label="entropy = 0.0\nsamples = 1\nvalue = [1, 0]\nclass = No"] ;
776 -> 782 ;
783 [label="race <= 2.5\nentropy = 0.946\nsamples = 22\nvalue = [8, 14]\nclass = Yes"] ;
775 -> 783 ;
784 [label="body_camera <= 0.5\nentropy = 0.971\nsamples = 20\nvalue = [8, 12]\nclass = Yes"] ;
783 -> 784 ;
785 [label="armed <= 59.5\nentropy = 0.89\nsamples = 13\nvalue = [4, 9]\nclass = Yes"] ;
784 -> 785 ;
786 [label="age <= 30.0\nentropy = 0.764\nsamples = 9\nvalue = [2, 7]\nclass = Yes"] ;
785 -> 786 ;
787 [label="race <= 1.5\nentropy = 0.918\nsamples = 6\nvalue = [2, 4]\nclass = Yes"] ;
786 -> 787 ;
788 [label="entropy = 0.0\nsamples = 2\nvalue = [0, 2]\nclass = Yes"] ;
787 -> 788 ;
789 [label="age <= 28.5\nentropy = 1.0\nsamples = 4\nvalue = [2, 2]\nclass = No"] ;
787 -> 789 ;
790 [label="entropy = 0.0\nsamples = 1\nvalue = [0, 1]\nclass = Yes"] ;
789 -> 790 ;
791 [label="armed <= 45.0\nentropy = 0.918\nsamples = 3\nvalue = [2, 1]\nclass = No"] ;
789 -> 791 ;
792 [label="entropy = 0.0\nsamples = 2\nvalue = [2, 0]\nclass = No"] ;
791 -> 792 ;
793 [label="entropy = 0.0\nsamples = 1\nvalue = [0, 1]\nclass = Yes"] ;
791 -> 793 ;
794 [label="entropy = 0.0\nsamples = 3\nvalue = [0, 3]\nclass = Yes"] ;
786 -> 794 ;
795 [label="age <= 29.5\nentropy = 1.0\nsamples = 4\nvalue = [2, 2]\nclass = No"] ;
785 -> 795 ;
796 [label="entropy = 0.0\nsamples = 2\nvalue = [0, 2]\nclass = Yes"] ;
795 -> 796 ;
797 [label="entropy = 0.0\nsamples = 2\nvalue = [2, 0]\nclass = No"] ;
795 -> 797 ;
798 [label="manner_of_death <= 0.5\nentropy = 0.985\nsamples = 7\nvalue = [4, 3]\nclass = No"] ;
784 -> 798 ;
799 [label="race <= 1.5\nentropy = 0.971\nsamples = 5\nvalue = [2, 3]\nclass = Yes"] ;
798 -> 799 ;
800 [label="age <= 30.0\nentropy = 0.918\nsamples = 3\nvalue = [2, 1]\nclass = No"] ;
799 -> 800 ;
801 [label="entropy = 0.0\nsamples = 1\nvalue = [1, 0]\nclass = No"] ;
800 -> 801 ;
802 [label="age <= 31.5\nentropy = 1.0\nsamples = 2\nvalue = [1, 1]\nclass = No"] ;
800 -> 802 ;
803 [label="entropy = 0.0\nsamples = 1\nvalue = [0, 1]\nclass = Yes"] ;
802 -> 803 ;
804 [label="entropy = 0.0\nsamples = 1\nvalue = [1, 0]\nclass = No"] ;
802 -> 804 ;
805 [label="entropy = 0.0\nsamples = 2\nvalue = [0, 2]\nclass = Yes"] ;
799 -> 805 ;
806 [label="entropy = 0.0\nsamples = 2\nvalue = [2, 0]\nclass = No"] ;
798 -> 806 ;
807 [label="entropy = 0.0\nsamples = 2\nvalue = [0, 2]\nclass = Yes"] ;
783 -> 807 ;
808 [label="entropy = 0.0\nsamples = 2\nvalue = [0, 2]\nclass = Yes"] ;
728 -> 808 ;
809 [label="gender <= 0.5\nentropy = 0.973\nsamples = 67\nvalue = [40, 27]\nclass = No"] ;
727 -> 809 ;
810 [label="entropy = 0.0\nsamples = 5\nvalue = [0, 5]\nclass = Yes"] ;
809 -> 810 ;
811 [label="armed <= 70.5\nentropy = 0.938\nsamples = 62\nvalue = [40, 22]\nclass = No"] ;
809 -> 811 ;
812 [label="race <= 0.5\nentropy = 0.929\nsamples = 61\nvalue = [40, 21]\nclass = No"] ;
811 -> 812 ;
813 [label="entropy = 0.0\nsamples = 2\nvalue = [2, 0]\nclass = No"] ;
812 -> 813 ;
814 [label="race <= 1.5\nentropy = 0.939\nsamples = 59\nvalue = [38, 21]\nclass = No"] ;
812 -> 814 ;
815 [label="age <= 38.0\nentropy = 0.998\nsamples = 19\nvalue = [10, 9]\nclass = No"] ;
814 -> 815 ;
816 [label="entropy = 0.0\nsamples = 5\nvalue = [5, 0]\nclass = No"] ;
815 -> 816 ;
817 [label="armed <= 42.0\nentropy = 0.94\nsamples = 14\nvalue = [5, 9]\nclass = Yes"] ;
815 -> 817 ;
818 [label="body_camera <= 0.5\nentropy = 1.0\nsamples = 10\nvalue = [5, 5]\nclass = No"] ;
817 -> 818 ;
819 [label="manner_of_death <= 0.5\nentropy = 0.918\nsamples = 6\nvalue = [4, 2]\nclass = No"] ;
818 -> 819 ;
820 [label="age <= 43.5\nentropy = 0.971\nsamples = 5\nvalue = [3, 2]\nclass = No"] ;
819 -> 820 ;
821 [label="age <= 40.0\nentropy = 0.811\nsamples = 4\nvalue = [3, 1]\nclass = No"] ;
820 -> 821 ;
822 [label="entropy = 0.0\nsamples = 1\nvalue = [1, 0]\nclass = No"] ;
821 -> 822 ;
823 [label="age <= 41.5\nentropy = 0.918\nsamples = 3\nvalue = [2, 1]\nclass = No"] ;
821 -> 823 ;
824 [label="entropy = 1.0\nsamples = 2\nvalue = [1, 1]\nclass = No"] ;
823 -> 824 ;
825 [label="entropy = 0.0\nsamples = 1\nvalue = [1, 0]\nclass = No"] ;
823 -> 825 ;
826 [label="entropy = 0.0\nsamples = 1\nvalue = [0, 1]\nclass = Yes"] ;
820 -> 826 ;
827 [label="entropy = 0.0\nsamples = 1\nvalue = [1, 0]\nclass = No"] ;
819 -> 827 ;
828 [label="age <= 41.0\nentropy = 0.811\nsamples = 4\nvalue = [1, 3]\nclass = Yes"] ;
818 -> 828 ;
829 [label="entropy = 0.0\nsamples = 1\nvalue = [0, 1]\nclass = Yes"] ;
828 -> 829 ;
830 [label="age <= 46.5\nentropy = 0.918\nsamples = 3\nvalue = [1, 2]\nclass = Yes"] ;
828 -> 830 ;
831 [label="entropy = 1.0\nsamples = 2\nvalue = [1, 1]\nclass = No"] ;
830 -> 831 ;
832 [label="entropy = 0.0\nsamples = 1\nvalue = [0, 1]\nclass = Yes"] ;
830 -> 832 ;
833 [label="entropy = 0.0\nsamples = 4\nvalue = [0, 4]\nclass = Yes"] ;
817 -> 833 ;
834 [label="age <= 42.5\nentropy = 0.881\nsamples = 40\nvalue = [28, 12]\nclass = No"] ;
814 -> 834 ;
835 [label="age <= 41.5\nentropy = 0.967\nsamples = 28\nvalue = [17, 11]\nclass = No"] ;
834 -> 835 ;
836 [label="body_camera <= 0.5\nentropy = 0.951\nsamples = 27\nvalue = [17, 10]\nclass = No"] ;
835 -> 836 ;
837 [label="armed <= 42.0\nentropy = 0.98\nsamples = 24\nvalue = [14, 10]\nclass = No"] ;
836 -> 837 ;
838 [label="age <= 38.5\nentropy = 0.998\nsamples = 19\nvalue = [10, 9]\nclass = No"] ;
837 -> 838 ;
839 [label="race <= 2.5\nentropy = 0.971\nsamples = 15\nvalue = [6, 9]\nclass = Yes"] ;
838 -> 839 ;
840 [label="age <= 36.0\nentropy = 0.89\nsamples = 13\nvalue = [4, 9]\nclass = Yes"] ;
839 -> 840 ;
841 [label="entropy = 0.0\nsamples = 4\nvalue = [0, 4]\nclass = Yes"] ;
840 -> 841 ;
842 [label="age <= 37.5\nentropy = 0.991\nsamples = 9\nvalue = [4, 5]\nclass = Yes"] ;
840 -> 842 ;
843 [label="manner_of_death <= 0.5\nentropy = 1.0\nsamples = 6\nvalue = [3, 3]\nclass = No"] ;
842 -> 843 ;
844 [label="entropy = 0.971\nsamples = 5\nvalue = [2, 3]\nclass = Yes"] ;
843 -> 844 ;
845 [label="entropy = 0.0\nsamples = 1\nvalue = [1, 0]\nclass = No"] ;
843 -> 845 ;
846 [label="manner_of_death <= 0.5\nentropy = 0.918\nsamples = 3\nvalue = [1, 2]\nclass = Yes"] ;
842 -> 846 ;
847 [label="entropy = 1.0\nsamples = 2\nvalue = [1, 1]\nclass = No"] ;
846 -> 847 ;
848 [label="entropy = 0.0\nsamples = 1\nvalue = [0, 1]\nclass = Yes"] ;
846 -> 848 ;
849 [label="entropy = 0.0\nsamples = 2\nvalue = [2, 0]\nclass = No"] ;
839 -> 849 ;
850 [label="entropy = 0.0\nsamples = 4\nvalue = [4, 0]\nclass = No"] ;
838 -> 850 ;
851 [label="race <= 2.5\nentropy = 0.722\nsamples = 5\nvalue = [4, 1]\nclass = No"] ;
837 -> 851 ;
852 [label="entropy = 0.0\nsamples = 4\nvalue = [4, 0]\nclass = No"] ;
851 -> 852 ;
853 [label="entropy = 0.0\nsamples = 1\nvalue = [0, 1]\nclass = Yes"] ;
851 -> 853 ;
854 [label="entropy = 0.0\nsamples = 3\nvalue = [3, 0]\nclass = No"] ;
836 -> 854 ;
855 [label="entropy = 0.0\nsamples = 1\nvalue = [0, 1]\nclass = Yes"] ;
835 -> 855 ;
856 [label="race <= 2.5\nentropy = 0.414\nsamples = 12\nvalue = [11, 1]\nclass = No"] ;
834 -> 856 ;
857 [label="entropy = 0.0\nsamples = 10\nvalue = [10, 0]\nclass = No"] ;
856 -> 857 ;
858 [label="age <= 46.0\nentropy = 1.0\nsamples = 2\nvalue = [1, 1]\nclass = No"] ;
856 -> 858 ;
859 [label="entropy = 0.0\nsamples = 1\nvalue = [1, 0]\nclass = No"] ;
858 -> 859 ;
860 [label="entropy = 0.0\nsamples = 1\nvalue = [0, 1]\nclass = Yes"] ;
858 -> 860 ;
861 [label="entropy = 0.0\nsamples = 1\nvalue = [0, 1]\nclass = Yes"] ;
811 -> 861 ;
862 [label="entropy = 0.0\nsamples = 2\nvalue = [2, 0]\nclass = No"] ;
724 -> 862 ;
863 [label="age <= 62.5\nentropy = 0.696\nsamples = 16\nvalue = [13, 3]\nclass = No"] ;
723 -> 863 ;
864 [label="age <= 56.5\nentropy = 0.439\nsamples = 11\nvalue = [10, 1]\nclass = No"] ;
863 -> 864 ;
865 [label="race <= 1.5\nentropy = 0.811\nsamples = 4\nvalue = [3, 1]\nclass = No"] ;
864 -> 865 ;
866 [label="entropy = 0.0\nsamples = 2\nvalue = [2, 0]\nclass = No"] ;
865 -> 866 ;
867 [label="entropy = 1.0\nsamples = 2\nvalue = [1, 1]\nclass = No"] ;
865 -> 867 ;
868 [label="entropy = 0.0\nsamples = 7\nvalue = [7, 0]\nclass = No"] ;
864 -> 868 ;
869 [label="age <= 66.0\nentropy = 0.971\nsamples = 5\nvalue = [3, 2]\nclass = No"] ;
863 -> 869 ;
870 [label="race <= 1.5\nentropy = 0.918\nsamples = 3\nvalue = [1, 2]\nclass = Yes"] ;
869 -> 870 ;
871 [label="age <= 63.5\nentropy = 1.0\nsamples = 2\nvalue = [1, 1]\nclass = No"] ;
870 -> 871 ;
872 [label="entropy = 0.0\nsamples = 1\nvalue = [0, 1]\nclass = Yes"] ;
871 -> 872 ;
873 [label="entropy = 0.0\nsamples = 1\nvalue = [1, 0]\nclass = No"] ;
871 -> 873 ;
874 [label="entropy = 0.0\nsamples = 1\nvalue = [0, 1]\nclass = Yes"] ;
870 -> 874 ;
875 [label="entropy = 0.0\nsamples = 2\nvalue = [2, 0]\nclass = No"] ;
869 -> 875 ;
876 [label="race <= 0.5\nentropy = 0.742\nsamples = 76\nvalue = [60, 16]\nclass = No"] ;
722 -> 876 ;
877 [label="entropy = 0.0\nsamples = 3\nvalue = [0, 3]\nclass = Yes"] ;
876 -> 877 ;
878 [label="threat_level <= 1.5\nentropy = 0.676\nsamples = 73\nvalue = [60, 13]\nclass = No"] ;
876 -> 878 ;
879 [label="age <= 16.5\nentropy = 0.768\nsamples = 49\nvalue = [38, 11]\nclass = No"] ;
878 -> 879 ;
880 [label="entropy = 0.0\nsamples = 1\nvalue = [0, 1]\nclass = Yes"] ;
879 -> 880 ;
881 [label="armed <= 74.5\nentropy = 0.738\nsamples = 48\nvalue = [38, 10]\nclass = No"] ;
879 -> 881 ;
882 [label="entropy = 0.0\nsamples = 6\nvalue = [6, 0]\nclass = No"] ;
881 -> 882 ;
883 [label="age <= 19.5\nentropy = 0.792\nsamples = 42\nvalue = [32, 10]\nclass = No"] ;
881 -> 883 ;
884 [label="entropy = 0.0\nsamples = 5\nvalue = [5, 0]\nclass = No"] ;
883 -> 884 ;
885 [label="age <= 20.5\nentropy = 0.842\nsamples = 37\nvalue = [27, 10]\nclass = No"] ;
883 -> 885 ;
886 [label="entropy = 0.0\nsamples = 1\nvalue = [0, 1]\nclass = Yes"] ;
885 -> 886 ;
887 [label="gender <= 0.5\nentropy = 0.811\nsamples = 36\nvalue = [27, 9]\nclass = No"] ;
885 -> 887 ;
888 [label="entropy = 0.0\nsamples = 3\nvalue = [3, 0]\nclass = No"] ;
887 -> 888 ;
889 [label="armed <= 77.5\nentropy = 0.845\nsamples = 33\nvalue = [24, 9]\nclass = No"] ;
887 -> 889 ;
890 [label="armed <= 76.5\nentropy = 0.811\nsamples = 32\nvalue = [24, 8]\nclass = No"] ;
889 -> 890 ;
891 [label="age <= 27.5\nentropy = 0.863\nsamples = 28\nvalue = [20, 8]\nclass = No"] ;
890 -> 891 ;
892 [label="body_camera <= 0.5\nentropy = 0.98\nsamples = 12\nvalue = [7, 5]\nclass = No"] ;
891 -> 892 ;
893 [label="age <= 23.5\nentropy = 1.0\nsamples = 10\nvalue = [5, 5]\nclass = No"] ;
892 -> 893 ;
894 [label="manner_of_death <= 0.5\nentropy = 0.811\nsamples = 4\nvalue = [3, 1]\nclass = No"] ;
893 -> 894 ;
895 [label="race <= 1.5\nentropy = 0.918\nsamples = 3\nvalue = [2, 1]\nclass = No"] ;
894 -> 895 ;
896 [label="entropy = 0.0\nsamples = 1\nvalue = [1, 0]\nclass = No"] ;
895 -> 896 ;
897 [label="entropy = 1.0\nsamples = 2\nvalue = [1, 1]\nclass = No"] ;
895 -> 897 ;
898 [label="entropy = 0.0\nsamples = 1\nvalue = [1, 0]\nclass = No"] ;
894 -> 898 ;
899 [label="race <= 1.5\nentropy = 0.918\nsamples = 6\nvalue = [2, 4]\nclass = Yes"] ;
893 -> 899 ;
900 [label="age <= 26.0\nentropy = 1.0\nsamples = 4\nvalue = [2, 2]\nclass = No"] ;
899 -> 900 ;
901 [label="entropy = 0.0\nsamples = 1\nvalue = [0, 1]\nclass = Yes"] ;
900 -> 901 ;
902 [label="armed <= 75.5\nentropy = 0.918\nsamples = 3\nvalue = [2, 1]\nclass = No"] ;
900 -> 902 ;
903 [label="entropy = 1.0\nsamples = 2\nvalue = [1, 1]\nclass = No"] ;
902 -> 903 ;
904 [label="entropy = 0.0\nsamples = 1\nvalue = [1, 0]\nclass = No"] ;
902 -> 904 ;
905 [label="entropy = 0.0\nsamples = 2\nvalue = [0, 2]\nclass = Yes"] ;
899 -> 905 ;
906 [label="entropy = 0.0\nsamples = 2\nvalue = [2, 0]\nclass = No"] ;
892 -> 906 ;
907 [label="age <= 40.5\nentropy = 0.696\nsamples = 16\nvalue = [13, 3]\nclass = No"] ;
891 -> 907 ;
908 [label="entropy = 0.0\nsamples = 9\nvalue = [9, 0]\nclass = No"] ;
907 -> 908 ;
909 [label="age <= 43.5\nentropy = 0.985\nsamples = 7\nvalue = [4, 3]\nclass = No"] ;
907 -> 909 ;
910 [label="entropy = 0.0\nsamples = 1\nvalue = [0, 1]\nclass = Yes"] ;
909 -> 910 ;
911 [label="age <= 51.0\nentropy = 0.918\nsamples = 6\nvalue = [4, 2]\nclass = No"] ;
909 -> 911 ;
912 [label="entropy = 0.0\nsamples = 2\nvalue = [2, 0]\nclass = No"] ;
911 -> 912 ;
913 [label="body_camera <= 0.5\nentropy = 1.0\nsamples = 4\nvalue = [2, 2]\nclass = No"] ;
911 -> 913 ;
914 [label="age <= 67.0\nentropy = 0.918\nsamples = 3\nvalue = [1, 2]\nclass = Yes"] ;
913 -> 914 ;
915 [label="entropy = 0.0\nsamples = 2\nvalue = [0, 2]\nclass = Yes"] ;
914 -> 915 ;
916 [label="entropy = 0.0\nsamples = 1\nvalue = [1, 0]\nclass = No"] ;
914 -> 916 ;
917 [label="entropy = 0.0\nsamples = 1\nvalue = [1, 0]\nclass = No"] ;
913 -> 917 ;
918 [label="entropy = 0.0\nsamples = 4\nvalue = [4, 0]\nclass = No"] ;
890 -> 918 ;
919 [label="entropy = 0.0\nsamples = 1\nvalue = [0, 1]\nclass = Yes"] ;
889 -> 919 ;
920 [label="age <= 35.5\nentropy = 0.414\nsamples = 24\nvalue = [22, 2]\nclass = No"] ;
878 -> 920 ;
921 [label="entropy = 0.0\nsamples = 17\nvalue = [17, 0]\nclass = No"] ;
920 -> 921 ;
922 [label="armed <= 76.5\nentropy = 0.863\nsamples = 7\nvalue = [5, 2]\nclass = No"] ;
920 -> 922 ;
923 [label="age <= 39.0\nentropy = 0.65\nsamples = 6\nvalue = [5, 1]\nclass = No"] ;
922 -> 923 ;
924 [label="entropy = 0.0\nsamples = 2\nvalue = [2, 0]\nclass = No"] ;
923 -> 924 ;
925 [label="age <= 42.5\nentropy = 0.811\nsamples = 4\nvalue = [3, 1]\nclass = No"] ;
923 -> 925 ;
926 [label="entropy = 1.0\nsamples = 2\nvalue = [1, 1]\nclass = No"] ;
925 -> 926 ;
927 [label="entropy = 0.0\nsamples = 2\nvalue = [2, 0]\nclass = No"] ;
925 -> 927 ;
928 [label="entropy = 0.0\nsamples = 1\nvalue = [0, 1]\nclass = Yes"] ;
922 -> 928 ;
929 [label="entropy = 0.0\nsamples = 15\nvalue = [15, 0]\nclass = No"] ;
619 -> 929 ;
930 [label="armed <= 32.5\nentropy = 0.942\nsamples = 1180\nvalue = [756, 424]\nclass = No"] ;
346 -> 930 ;
931 [label="flee <= 2.5\nentropy = 0.915\nsamples = 760\nvalue = [509.0, 251.0]\nclass = No"] ;
930 -> 931 ;
932 [label="age <= 50.5\nentropy = 0.924\nsamples = 726\nvalue = [480, 246]\nclass = No"] ;
931 -> 932 ;
933 [label="threat_level <= 0.5\nentropy = 0.897\nsamples = 492\nvalue = [338, 154]\nclass = No"] ;
932 -> 933 ;
934 [label="race <= 4.5\nentropy = 0.864\nsamples = 388\nvalue = [277, 111]\nclass = No"] ;
933 -> 934 ;
935 [label="age <= 28.0\nentropy = 0.954\nsamples = 8\nvalue = [3, 5]\nclass = Yes"] ;
934 -> 935 ;
936 [label="entropy = 0.0\nsamples = 2\nvalue = [0, 2]\nclass = Yes"] ;
935 -> 936 ;
937 [label="body_camera <= 0.5\nentropy = 1.0\nsamples = 6\nvalue = [3, 3]\nclass = No"] ;
935 -> 937 ;
938 [label="armed <= 21.5\nentropy = 0.971\nsamples = 5\nvalue = [3, 2]\nclass = No"] ;
937 -> 938 ;
939 [label="entropy = 0.0\nsamples = 1\nvalue = [0, 1]\nclass = Yes"] ;
938 -> 939 ;
940 [label="age <= 35.0\nentropy = 0.811\nsamples = 4\nvalue = [3, 1]\nclass = No"] ;
938 -> 940 ;
941 [label="entropy = 0.0\nsamples = 2\nvalue = [2, 0]\nclass = No"] ;
940 -> 941 ;
942 [label="manner_of_death <= 0.5\nentropy = 1.0\nsamples = 2\nvalue = [1, 1]\nclass = No"] ;
940 -> 942 ;
943 [label="entropy = 0.0\nsamples = 1\nvalue = [0, 1]\nclass = Yes"] ;
942 -> 943 ;
944 [label="entropy = 0.0\nsamples = 1\nvalue = [1, 0]\nclass = No"] ;
942 -> 944 ;
945 [label="entropy = 0.0\nsamples = 1\nvalue = [0, 1]\nclass = Yes"] ;
937 -> 945 ;
946 [label="manner_of_death <= 0.5\nentropy = 0.854\nsamples = 380\nvalue = [274.0, 106.0]\nclass = No"] ;
934 -> 946 ;
947 [label="age <= 15.5\nentropy = 0.858\nsamples = 376\nvalue = [270, 106]\nclass = No"] ;
946 -> 947 ;
948 [label="entropy = 0.0\nsamples = 1\nvalue = [0, 1]\nclass = Yes"] ;
947 -> 948 ;
949 [label="age <= 18.5\nentropy = 0.855\nsamples = 375\nvalue = [270.0, 105.0]\nclass = No"] ;
947 -> 949 ;
950 [label="age <= 17.5\nentropy = 0.439\nsamples = 11\nvalue = [10, 1]\nclass = No"] ;
949 -> 950 ;
951 [label="entropy = 0.0\nsamples = 3\nvalue = [3, 0]\nclass = No"] ;
950 -> 951 ;
952 [label="entropy = 0.544\nsamples = 8\nvalue = [7, 1]\nclass = No"] ;
950 -> 952 ;
953 [label="age <= 20.5\nentropy = 0.863\nsamples = 364\nvalue = [260, 104]\nclass = No"] ;
949 -> 953 ;
954 [label="age <= 19.5\nentropy = 1.0\nsamples = 10\nvalue = [5, 5]\nclass = No"] ;
953 -> 954 ;
955 [label="body_camera <= 0.5\nentropy = 0.918\nsamples = 3\nvalue = [2, 1]\nclass = No"] ;
954 -> 955 ;
956 [label="entropy = 1.0\nsamples = 2\nvalue = [1, 1]\nclass = No"] ;
955 -> 956 ;
957 [label="entropy = 0.0\nsamples = 1\nvalue = [1, 0]\nclass = No"] ;
955 -> 957 ;
958 [label="body_camera <= 0.5\nentropy = 0.985\nsamples = 7\nvalue = [3, 4]\nclass = Yes"] ;
954 -> 958 ;
959 [label="entropy = 1.0\nsamples = 6\nvalue = [3, 3]\nclass = No"] ;
958 -> 959 ;
960 [label="entropy = 0.0\nsamples = 1\nvalue = [0, 1]\nclass = Yes"] ;
958 -> 960 ;
961 [label="age <= 21.5\nentropy = 0.855\nsamples = 354\nvalue = [255.0, 99.0]\nclass = No"] ;
953 -> 961 ;
962 [label="entropy = 0.0\nsamples = 5\nvalue = [5, 0]\nclass = No"] ;
961 -> 962 ;
963 [label="age <= 43.5\nentropy = 0.86\nsamples = 349\nvalue = [250, 99]\nclass = No"] ;
961 -> 963 ;
964 [label="age <= 38.5\nentropy = 0.885\nsamples = 251\nvalue = [175, 76]\nclass = No"] ;
963 -> 964 ;
965 [label="age <= 33.5\nentropy = 0.856\nsamples = 207\nvalue = [149.0, 58.0]\nclass = No"] ;
964 -> 965 ;
966 [label="age <= 32.5\nentropy = 0.891\nsamples = 146\nvalue = [101, 45]\nclass = No"] ;
965 -> 966 ;
967 [label="age <= 24.5\nentropy = 0.869\nsamples = 124\nvalue = [88, 36]\nclass = No"] ;
966 -> 967 ;
968 [label="armed <= 17.5\nentropy = 0.934\nsamples = 20\nvalue = [13, 7]\nclass = No"] ;
967 -> 968 ;
969 [label="entropy = 0.0\nsamples = 2\nvalue = [2, 0]\nclass = No"] ;
968 -> 969 ;
970 [label="gender <= 0.5\nentropy = 0.964\nsamples = 18\nvalue = [11, 7]\nclass = No"] ;
968 -> 970 ;
971 [label="entropy = 0.0\nsamples = 1\nvalue = [1, 0]\nclass = No"] ;
970 -> 971 ;
972 [label="age <= 22.5\nentropy = 0.977\nsamples = 17\nvalue = [10, 7]\nclass = No"] ;
970 -> 972 ;
973 [label="entropy = 0.811\nsamples = 4\nvalue = [3, 1]\nclass = No"] ;
972 -> 973 ;
974 [label="age <= 23.5\nentropy = 0.996\nsamples = 13\nvalue = [7, 6]\nclass = No"] ;
972 -> 974 ;
975 [label="entropy = 0.918\nsamples = 3\nvalue = [1, 2]\nclass = Yes"] ;
974 -> 975 ;
976 [label="entropy = 0.971\nsamples = 10\nvalue = [6, 4]\nclass = No"] ;
974 -> 976 ;
977 [label="armed <= 9.5\nentropy = 0.854\nsamples = 104\nvalue = [75, 29]\nclass = No"] ;
967 -> 977 ;
978 [label="age <= 31.5\nentropy = 0.918\nsamples = 3\nvalue = [1, 2]\nclass = Yes"] ;
977 -> 978 ;
979 [label="entropy = 0.0\nsamples = 2\nvalue = [0, 2]\nclass = Yes"] ;
978 -> 979 ;
980 [label="entropy = 0.0\nsamples = 1\nvalue = [1, 0]\nclass = No"] ;
978 -> 980 ;
981 [label="age <= 25.5\nentropy = 0.838\nsamples = 101\nvalue = [74, 27]\nclass = No"] ;
977 -> 981 ;
982 [label="gender <= 0.5\nentropy = 0.544\nsamples = 8\nvalue = [7, 1]\nclass = No"] ;
981 -> 982 ;
983 [label="entropy = 0.0\nsamples = 2\nvalue = [2, 0]\nclass = No"] ;
982 -> 983 ;
984 [label="entropy = 0.65\nsamples = 6\nvalue = [5, 1]\nclass = No"] ;
982 -> 984 ;
985 [label="gender <= 0.5\nentropy = 0.855\nsamples = 93\nvalue = [67.0, 26.0]\nclass = No"] ;
981 -> 985 ;
986 [label="age <= 30.5\nentropy = 1.0\nsamples = 4\nvalue = [2, 2]\nclass = No"] ;
985 -> 986 ;
987 [label="entropy = 0.0\nsamples = 2\nvalue = [2, 0]\nclass = No"] ;
986 -> 987 ;
988 [label="entropy = 0.0\nsamples = 2\nvalue = [0, 2]\nclass = Yes"] ;
986 -> 988 ;
989 [label="age <= 28.5\nentropy = 0.841\nsamples = 89\nvalue = [65, 24]\nclass = No"] ;
985 -> 989 ;
990 [label="age <= 27.5\nentropy = 0.918\nsamples = 39\nvalue = [26, 13]\nclass = No"] ;
989 -> 990 ;
991 [label="body_camera <= 0.5\nentropy = 0.837\nsamples = 30\nvalue = [22, 8]\nclass = No"] ;
990 -> 991 ;
992 [label="age <= 26.5\nentropy = 0.85\nsamples = 29\nvalue = [21, 8]\nclass = No"] ;
991 -> 992 ;
993 [label="entropy = 0.874\nsamples = 17\nvalue = [12, 5]\nclass = No"] ;
992 -> 993 ;
994 [label="entropy = 0.811\nsamples = 12\nvalue = [9, 3]\nclass = No"] ;
992 -> 994 ;
995 [label="entropy = 0.0\nsamples = 1\nvalue = [1, 0]\nclass = No"] ;
991 -> 995 ;
996 [label="body_camera <= 0.5\nentropy = 0.991\nsamples = 9\nvalue = [4, 5]\nclass = Yes"] ;
990 -> 996 ;
997 [label="entropy = 1.0\nsamples = 8\nvalue = [4, 4]\nclass = No"] ;
996 -> 997 ;
998 [label="entropy = 0.0\nsamples = 1\nvalue = [0, 1]\nclass = Yes"] ;
996 -> 998 ;
999 [label="body_camera <= 0.5\nentropy = 0.76\nsamples = 50\nvalue = [39, 11]\nclass = No"] ;
989 -> 999 ;
1000 [label="age <= 29.5\nentropy = 0.794\nsamples = 46\nvalue = [35, 11]\nclass = No"] ;
999 -> 1000 ;
1001 [label="armed <= 22.0\nentropy = 0.503\nsamples = 9\nvalue = [8, 1]\nclass = No"] ;
1000 -> 1001 ;
1002 [label="entropy = 0.0\nsamples = 1\nvalue = [1, 0]\nclass = No"] ;
1001 -> 1002 ;
1003 [label="entropy = 0.544\nsamples = 8\nvalue = [7, 1]\nclass = No"] ;
1001 -> 1003 ;
1004 [label="age <= 31.5\nentropy = 0.842\nsamples = 37\nvalue = [27, 10]\nclass = No"] ;
1000 -> 1004 ;
1005 [label="age <= 30.5\nentropy = 0.855\nsamples = 25\nvalue = [18.0, 7.0]\nclass = No"] ;
1004 -> 1005 ;
1006 [label="entropy = 0.811\nsamples = 8\nvalue = [6, 2]\nclass = No"] ;
1005 -> 1006 ;
1007 [label="entropy = 0.874\nsamples = 17\nvalue = [12, 5]\nclass = No"] ;
1005 -> 1007 ;
1008 [label="entropy = 0.811\nsamples = 12\nvalue = [9, 3]\nclass = No"] ;
1004 -> 1008 ;
1009 [label="entropy = 0.0\nsamples = 4\nvalue = [4, 0]\nclass = No"] ;
999 -> 1009 ;
1010 [label="gender <= 0.5\nentropy = 0.976\nsamples = 22\nvalue = [13, 9]\nclass = No"] ;
966 -> 1010 ;
1011 [label="entropy = 0.0\nsamples = 1\nvalue = [1, 0]\nclass = No"] ;
1010 -> 1011 ;
1012 [label="body_camera <= 0.5\nentropy = 0.985\nsamples = 21\nvalue = [12, 9]\nclass = No"] ;
1010 -> 1012 ;
1013 [label="entropy = 0.982\nsamples = 19\nvalue = [11, 8]\nclass = No"] ;
1012 -> 1013 ;
1014 [label="entropy = 1.0\nsamples = 2\nvalue = [1, 1]\nclass = No"] ;
1012 -> 1014 ;
1015 [label="age <= 35.5\nentropy = 0.747\nsamples = 61\nvalue = [48, 13]\nclass = No"] ;
965 -> 1015 ;
1016 [label="body_camera <= 0.5\nentropy = 0.516\nsamples = 26\nvalue = [23, 3]\nclass = No"] ;
1015 -> 1016 ;
1017 [label="age <= 34.5\nentropy = 0.592\nsamples = 21\nvalue = [18, 3]\nclass = No"] ;
1016 -> 1017 ;
1018 [label="entropy = 0.414\nsamples = 12\nvalue = [11, 1]\nclass = No"] ;
1017 -> 1018 ;
1019 [label="gender <= 0.5\nentropy = 0.764\nsamples = 9\nvalue = [7, 2]\nclass = No"] ;
1017 -> 1019 ;
1020 [label="entropy = 0.0\nsamples = 1\nvalue = [1, 0]\nclass = No"] ;
1019 -> 1020 ;
1021 [label="entropy = 0.811\nsamples = 8\nvalue = [6, 2]\nclass = No"] ;
1019 -> 1021 ;
1022 [label="entropy = 0.0\nsamples = 5\nvalue = [5, 0]\nclass = No"] ;
1016 -> 1022 ;
1023 [label="body_camera <= 0.5\nentropy = 0.863\nsamples = 35\nvalue = [25, 10]\nclass = No"] ;
1015 -> 1023 ;
1024 [label="gender <= 0.5\nentropy = 0.811\nsamples = 32\nvalue = [24, 8]\nclass = No"] ;
1023 -> 1024 ;
1025 [label="age <= 36.5\nentropy = 1.0\nsamples = 2\nvalue = [1, 1]\nclass = No"] ;
1024 -> 1025 ;
1026 [label="entropy = 0.0\nsamples = 1\nvalue = [0, 1]\nclass = Yes"] ;
1025 -> 1026 ;
1027 [label="entropy = 0.0\nsamples = 1\nvalue = [1, 0]\nclass = No"] ;
1025 -> 1027 ;
1028 [label="age <= 36.5\nentropy = 0.784\nsamples = 30\nvalue = [23, 7]\nclass = No"] ;
1024 -> 1028 ;
1029 [label="armed <= 15.5\nentropy = 0.592\nsamples = 14\nvalue = [12, 2]\nclass = No"] ;
1028 -> 1029 ;
1030 [label="entropy = 0.0\nsamples = 1\nvalue = [1, 0]\nclass = No"] ;
1029 -> 1030 ;
1031 [label="entropy = 0.619\nsamples = 13\nvalue = [11, 2]\nclass = No"] ;
1029 -> 1031 ;
1032 [label="age <= 37.5\nentropy = 0.896\nsamples = 16\nvalue = [11, 5]\nclass = No"] ;
1028 -> 1032 ;
1033 [label="entropy = 0.954\nsamples = 8\nvalue = [5, 3]\nclass = No"] ;
1032 -> 1033 ;
1034 [label="entropy = 0.811\nsamples = 8\nvalue = [6, 2]\nclass = No"] ;
1032 -> 1034 ;
1035 [label="age <= 36.5\nentropy = 0.918\nsamples = 3\nvalue = [1, 2]\nclass = Yes"] ;
1023 -> 1035 ;
1036 [label="entropy = 0.0\nsamples = 1\nvalue = [0, 1]\nclass = Yes"] ;
1035 -> 1036 ;
1037 [label="entropy = 1.0\nsamples = 2\nvalue = [1, 1]\nclass = No"] ;
1035 -> 1037 ;
1038 [label="age <= 39.5\nentropy = 0.976\nsamples = 44\nvalue = [26, 18]\nclass = No"] ;
964 -> 1038 ;
1039 [label="entropy = 0.845\nsamples = 11\nvalue = [3, 8]\nclass = Yes"] ;
1038 -> 1039 ;
1040 [label="body_camera <= 0.5\nentropy = 0.885\nsamples = 33\nvalue = [23, 10]\nclass = No"] ;
1038 -> 1040 ;
1041 [label="age <= 42.5\nentropy = 0.907\nsamples = 31\nvalue = [21, 10]\nclass = No"] ;
1040 -> 1041 ;
1042 [label="age <= 41.5\nentropy = 0.855\nsamples = 25\nvalue = [18.0, 7.0]\nclass = No"] ;
1041 -> 1042 ;
1043 [label="gender <= 0.5\nentropy = 0.918\nsamples = 18\nvalue = [12, 6]\nclass = No"] ;
1042 -> 1043 ;
1044 [label="age <= 40.5\nentropy = 0.918\nsamples = 3\nvalue = [2, 1]\nclass = No"] ;
1043 -> 1044 ;
1045 [label="entropy = 0.0\nsamples = 1\nvalue = [1, 0]\nclass = No"] ;
1044 -> 1045 ;
1046 [label="entropy = 1.0\nsamples = 2\nvalue = [1, 1]\nclass = No"] ;
1044 -> 1046 ;
1047 [label="age <= 40.5\nentropy = 0.918\nsamples = 15\nvalue = [10, 5]\nclass = No"] ;
1043 -> 1047 ;
1048 [label="entropy = 0.954\nsamples = 8\nvalue = [5, 3]\nclass = No"] ;
1047 -> 1048 ;
1049 [label="entropy = 0.863\nsamples = 7\nvalue = [5, 2]\nclass = No"] ;
1047 -> 1049 ;
1050 [label="armed <= 16.5\nentropy = 0.592\nsamples = 7\nvalue = [6, 1]\nclass = No"] ;
1042 -> 1050 ;
1051 [label="entropy = 0.0\nsamples = 1\nvalue = [1, 0]\nclass = No"] ;
1050 -> 1051 ;
1052 [label="entropy = 0.65\nsamples = 6\nvalue = [5, 1]\nclass = No"] ;
1050 -> 1052 ;
1053 [label="gender <= 0.5\nentropy = 1.0\nsamples = 6\nvalue = [3, 3]\nclass = No"] ;
1041 -> 1053 ;
1054 [label="entropy = 0.0\nsamples = 1\nvalue = [0, 1]\nclass = Yes"] ;
1053 -> 1054 ;
1055 [label="entropy = 0.971\nsamples = 5\nvalue = [3, 2]\nclass = No"] ;
1053 -> 1055 ;
1056 [label="entropy = 0.0\nsamples = 2\nvalue = [2, 0]\nclass = No"] ;
1040 -> 1056 ;
1057 [label="age <= 49.5\nentropy = 0.786\nsamples = 98\nvalue = [75, 23]\nclass = No"] ;
963 -> 1057 ;
1058 [label="body_camera <= 0.5\nentropy = 0.727\nsamples = 79\nvalue = [63, 16]\nclass = No"] ;
1057 -> 1058 ;
1059 [label="age <= 46.5\nentropy = 0.694\nsamples = 75\nvalue = [61, 14]\nclass = No"] ;
1058 -> 1059 ;
1060 [label="armed <= 26.5\nentropy = 0.581\nsamples = 36\nvalue = [31, 5]\nclass = No"] ;
1059 -> 1060 ;
1061 [label="entropy = 0.0\nsamples = 1\nvalue = [0, 1]\nclass = Yes"] ;
1060 -> 1061 ;
1062 [label="age <= 45.5\nentropy = 0.513\nsamples = 35\nvalue = [31, 4]\nclass = No"] ;
1060 -> 1062 ;
1063 [label="age <= 44.5\nentropy = 0.544\nsamples = 24\nvalue = [21, 3]\nclass = No"] ;
1062 -> 1063 ;
1064 [label="entropy = 0.592\nsamples = 7\nvalue = [6, 1]\nclass = No"] ;
1063 -> 1064 ;
1065 [label="entropy = 0.523\nsamples = 17\nvalue = [15, 2]\nclass = No"] ;
1063 -> 1065 ;
1066 [label="entropy = 0.439\nsamples = 11\nvalue = [10, 1]\nclass = No"] ;
1062 -> 1066 ;
1067 [label="age <= 48.5\nentropy = 0.779\nsamples = 39\nvalue = [30, 9]\nclass = No"] ;
1059 -> 1067 ;
1068 [label="gender <= 0.5\nentropy = 0.855\nsamples = 25\nvalue = [18.0, 7.0]\nclass = No"] ;
1067 -> 1068 ;
